tree
version=v3
num_class=1
num_tree_per_iteration=1
label_index=0
max_feature_idx=27
objective=binary sigmoid:1
feature_names=Column_0 Column_1 Column_2 Column_3 Column_4 Column_5 Column_6 Column_7 Column_8 Column_9 Column_10 Column_11 Column_12 Column_13 Column_14 Column_15 Column_16 Column_17 Column_18 Column_19 Column_20 Column_21 Column_22 Column_23 Column_24 Column_25 Column_26 Column_27
feature_infos=[0.27500000000000002:6.6950000000000003] [-2.4169999999999998:2.4300000000000002] [-1.7430000000000001:1.7430000000000001] [0.019:5.7000000000000002] [-1.7430000000000001:1.7430000000000001] [0.159:4.1900000000000004] [-2.9409999999999998:2.9700000000000002] [-1.7410000000000001:1.7410000000000001] [0:2.173] [0.19:5.1929999999999996] [-2.9039999999999999:2.9089999999999998] [-1.742:1.7430000000000001] [0:2.2149999999999999] [0.26400000000000001:6.5229999999999997] [-2.7280000000000002:2.7269999999999999] [-1.742:1.742] [0:2.548] [0.36499999999999999:6.0679999999999996] [-2.4950000000000001:2.496] [-1.74:1.7430000000000001] [0:3.1019999999999999] [0.17199999999999999:13.098000000000001] [0.41899999999999998:7.3920000000000003] [0.46100000000000002:3.6819999999999999] [0.38400000000000001:6.5830000000000002] [0.092999999999999999:7.8600000000000003] [0.38900000000000001:4.5430000000000001] [0.48899999999999999:4.3159999999999998]
tree_sizes=12187 12553 12307 12704 12962 12952 12761 13253 13175 13159 13360 12973 13076 12655 12903 13104 13208 12669 12910 13125 12451

Tree=0
num_leaves=117
num_cat=0
split_feature=25 25 26 5 25 3 25 5 24 3 13 5 24 24 3 5 5 26 14 3 5 9 22 17 26 25 17 24 6 9 14 26 3 23 13 5 15 9 3 24 22 7 1 14 17 6 1 24 9 26 22 7 1 17 7 7 22 18 19 10 6 23 15 5 26 9 1 14 11 14 25 3 11 11 11 25 1 1 5 6 19 13 15 24 24 13 17 15 26 26 9 9 19 7 17 5 13 15 2 9 22 3 6 11 19 9 22 18 1 1 11 15 23 1 1 1
split_gain=135.991 123.635 71.4967 45.4438 28.6258 27.4508 26.3501 17.7354 13.5296 13.9026 13.3635 13.3398 13.3279 14.7631 11.5019 16.6557 10.1044 9.8835 9.60626 9.40683 14.2266 9.66212 9.34395 9.26725 9.05291 11.4682 8.25771 8.19086 10.4243 8.13125 8.06445 8.2198 7.80823 7.80364 11.9486 7.72515 7.58117 7.17411 7.85835 9.42503 8.9365 7.37851 8.19147 7.17339 6.99637 7.31782 6.73784 6.65182 6.36424 7.38127 6.02731 5.78929 5.72257 6.90807 5.70524 5.67947 5.65408 5.62062 5.55034 5.51634 5.51142 6.69254 5.46051 5.39894 5.94453 5.30358 5.23424 5.05686 4.81927 4.79899 6.50335 4.78279 6.35298 6.75726 4.8262 4.76706 4.54913 5.34054 4.20016 4.14494 4.18658 4.13186 6.57662 5.82287 5.36356 6.15896 4.09989 4.25578 4.03199 3.89975 3.7764 3.55525 3.31266 3.25353 3.1915 3.1727 2.92791 2.81031 2.80253 2.6196 2.53566 2.50921 2.46028 2.4057 2.36444 2.12493 4.81625 2.05603 1.40674 1.00368 0.903314 0.620458 0.620035 0.429483 1.42109e-14 7.10543e-15
threshold=1.0895000000000004 0.59250000000000014 0.77650000000000008 0.82050000000000012 1.5695000000000003 1.6175000000000004 0.99250000000000005 1.5125000000000002 1.2435000000000003 1.8795000000000002 0.90350000000000008 0.88150000000000006 0.96550000000000014 0.74250000000000005 0.65250000000000019 1.0075000000000001 1.1685000000000001 1.0005000000000002 -0.14349999999999996 1.7030000000000001 1.0615000000000003 1.2475000000000003 0.89650000000000019 1.0865000000000002 1.1955000000000002 0.8175 1.1315000000000002 0.76450000000000007 -1.5034999999999996 1.2545000000000002 0.078500000000000014 1.0805000000000002 1.2705000000000002 1.0785000000000002 0.88950000000000007 0.69450000000000001 0.45350000000000007 0.47750000000000004 0.63450000000000017 0.98550000000000015 1.0575000000000003 0.70950000000000013 0.43250000000000005 0.12050000000000001 0.86050000000000015 -0.18349999999999997 -0.19549999999999998 0.64150000000000007 0.84750000000000003 0.88650000000000018 1.0265000000000002 -0.92449999999999999 0.9105000000000002 1.1435000000000002 -0.61299999999999988 -0.57349999999999979 0.85550000000000004 0.22950000000000004 -0.19999999999999998 -0.47449999999999992 -0.33599999999999997 0.98850000000000005 0.48000000000000004 0.9235000000000001 1.1655000000000002 1.1275000000000002 -1.2704999999999997 0.97450000000000003 -0.057499999999999996 0.38950000000000007 0.48650000000000004 0.72550000000000014 0.37850000000000006 -0.89749999999999985 0.5375000000000002 1.9785000000000001 -1.0874999999999997 -0.26249999999999996 1.1815000000000002 -0.018499999999999996 0.17650000000000002 0.47050000000000003 -1.3984999999999996 1.1055000000000004 0.72850000000000004 0.74450000000000005 0.93150000000000011 0.079500000000000015 1.0375000000000003 0.96250000000000002 0.74150000000000016 0.85550000000000004 0.49650000000000005 0.076500000000000012 1.1815000000000002 0.7945000000000001 0.97150000000000014 -0.39849999999999997 -0.53949999999999998 0.92250000000000021 0.98650000000000004 1.1555000000000002 0.15150000000000002 0.41450000000000004 -1.0000000180025095e-35 1.0975000000000004 0.94950000000000012 0.57750000000000001 -0.70949999999999991 -0.11649999999999999 -1.0000000180025095e-35 -1.2139999999999997 1.1075000000000002 -0.061999999999999993 0.82750000000000001 -0.05149999999999999
decision_type=2 2 2 2 2 2 2 2 2 2 2 2 2 2 2 2 2 2 2 2 2 2 2 2 2 2 2 2 2 2 2 2 2 2 2 2 2 2 2 2 2 2 2 2 2 2 2 2 2 2 2 2 2 2 2 2 2 2 2 2 2 2 2 2 2 2 2 2 2 2 2 2 2 2 2 2 2 2 2 2 2 2 2 2 2 2 2 2 2 2 2 2 2 2 2 2 2 2 2 2 2 2 2 2 2 2 2 2 2 2 2 2 2 2 2 2
left_child=1 7 3 47 12 6 11 14 17 16 26 27 13 22 15 18 -10 -6 90 20 21 43 -2 -18 48 -26 44 86 -29 50 35 89 63 52 56 -8 96 -30 79 40 58 51 -43 59 45 -7 -21 -3 88 65 97 -41 53 81 99 75 -35 -27 -40 -14 -56 -62 93 76 78 -50 -51 105 -45 -20 -71 72 73 -49 109 -19 -15 -78 -65 104 -81 -16 -83 84 85 -84 87 -4 108 -32 -1 -24 -54 -37 -9 -79 -5 -12 -53 -22 -57 -58 -102 -86 -39 106 -68 111 -13 -73 -90 -107 114 -88 -110 -113
right_child=4 2 5 36 8 10 30 94 9 -11 29 24 19 32 33 -17 23 55 69 46 54 -23 91 -25 25 57 -28 28 37 -31 31 -33 -34 34 -36 62 -38 38 39 41 -42 42 -44 68 -46 -47 -48 71 49 66 -52 98 92 -55 60 100 101 -59 -60 -61 61 -63 -64 64 -66 -67 67 -69 -70 70 -72 74 -74 -75 -76 -77 77 95 -80 80 -82 82 83 -85 103 -87 113 -89 110 -91 -92 -93 -94 -95 -96 -97 -98 -99 -100 -101 102 -103 -104 -105 -106 107 -108 -109 112 -111 -112 115 -114 -115 -116 -117
leaf_value=0.093691173561552835 0.02310252021778042 0.10913244148050305 0.27163340386564583 0.19834865612332653 0.10040476830892249 0.095750009284079535 0.06133804077899048 0.13780908190141061 0.011337744660485025 -0.091604041465849897 0.042220280498385457 0.25839803136368861 0.1894270346590442 -0.072486281185244736 0.093691173561552821 0.24810385275105512 0.075676360989444219 0.052514459111018902 -0.053368520904639713 0.10913244148050305 0.1894270346590442 0.20950068295367952 0.12738121265744423 0.23266258483210486 0.092856510430798761 0.28692761209012996 0.061338040778990438 0.042220280498385387 0.26869220997632209 0.15446003440387307 0.084040381112208934 -0.011309448287308718 -0.066511981097555781 0.12920608977513834 0.20950068295367952 0.2931408841813265 0.10913244148050305 0.29732289424270891 0.13422450184879717 0.16195783172954331 0.20280946685546775 0.19331225690961881 0.028837848301961885 -0.072486281185244819 0.29314088418132661 0.23817732337458705 -0.053368520904639852 0.01788858559579716 0.10169775692693443 0.14927973806977363 0.11869132162080558 0.20950068295367957 0.0034816609824225575 0.11455775183040448 0.061338040778990507 -0.09160404146584987 -0.051456744876579349 0.16648572232231817 0.021631923273118428 0.057514488722869461 0.099573561340200512 0.25039144799830698 0.13422450184879717 0.073708356254676075 -0.011309448287308718 0.21722131691315466 0.17022615368156702 0.1844086225853854 0.058948320743914803 0.12251487367692658 -0.014397701871098748 -0.031383096581943951 -0.034250760624034773 0.14927973806977363 0.03790336688663587 -0.052751818960104183 0.11869132162080558 0.042220280498385374 0.18942703465904423 0.14258852197156188 0.24810385275105512 0.10913244148050304 -0.041419920729261386 0.082949421965761355 -0.091604041465849814 0.10913244148050305 0.30986892442685599 0.14927973806977363 0.18942703465904423 0.19516236274322574 0.20950068295367952 0.24004753905421147 -0.091604041465849897 0.18768150002472811 0.24964797954295009 -0.056693348779527628 0.28310406003400895 -0.05814796097479101 0.2983982682584928 0.29075116414625091 -0.074876001220320523 0.048911496596597173 0.017888585595797188 -0.014397701871098775 0.20950068295367946 0.2697216278375853 0.29499955531971872 0.22957433124831483 0.30986892442685593 -0.09160404146584987 0.24964797954295015 0.30986892442685593 0.27163340386564594 0.26972162783758541 0.30986892442685599 0.30986892442685593
leaf_weight=6.4761521220207232 5.2307382524013546 8.9669798612594587 5.2307382524013537 8.9669798612594658 5.7289038002490988 7.4724832177162206 5.2307382524013546 5.2307382524013502 9.7142281830310875 4.9816554784774771 5.2307382524013555 9.7142281830310804 4.9816554784774789 5.2307382524013546 6.4761521220207205 6.4761521220207205 8.9669798612594587 9.7142281830310839 5.2307382524013546 4.981655478477478 4.9816554784774798 4.9816554784774771 5.4798210263252241 6.4761521220207205 9.2160626351833361 8.7178970873355848 5.230738252401351 5.230738252401351 9.7142281830310804 7.7215659916400901 7.9706487655639666 6.2270693480968466 7.970648765563964 4.9816554784774807 5.9779865741729727 5.9779865741729754 6.4761521220207205 7.9706487655639648 7.9706487655639711 9.4651454091072047 7.4724832177162162 7.7215659916400892 4.981655478477478 5.2307382524013519 5.9779865741729727 6.974317669868471 5.2307382524013502 8.219731539487837 6.725234895944598 4.9816554784774771 5.230738252401351 5.9779865741729692 9.4651454091072065 9.2160626351833326 5.2307382524013564 16.688545852899555 4.9816554784774763 6.9743176698684684 9.7142281830310804 8.7178970873355901 5.2307382524013484 6.7252348959445953 7.970648765563964 8.4688143134117144 4.9816554784774771 9.7142281830310804 5.728903800249098 7.970648765563964 5.9779865741729719 7.4724832177162153 6.4761521220207214 4.9816554784774789 6.9743176698684684 7.4724832177162197 7.7215659916400901 7.7215659916400901 5.2307382524013564 7.4724832177162135 4.9816554784774771 8.9669798612594587 6.4761521220207205 5.4798210263252178 5.9779865741729825 5.7289038002490988 10.71055927872658 4.981655478477478 5.7289038002490997 6.2270693480968475 4.981655478477478 5.2307382524013519 4.981655478477478 5.7289038002490997 5.9779865741729727 5.7289038002490997 4.981655478477478 5.7289038002490997 7.4724832177162162 5.9779865741729754 8.7178970873355937 5.2307382524013519 5.9779865741729719 4.981655478477478 5.4798210263252258 6.4761521220207205 4.9816554784774798 4.9816554784774807 6.7252348959445953 4.9816554784774771 17.186711400747306 6.2270693480968484 4.9816554784774763 9.9633109569549578 5.230738252401351 4.9816554784774763 5.230738252401351 6.9743176698684719
leaf_count=26 21 36 21 36 23 30 21 21 39 20 21 39 20 21 26 26 36 39 21 20 20 20 22 26 37 35 21 21 39 31 32 25 32 20 24 24 26 32 32 38 30 31 20 21 24 28 21 33 27 20 21 24 38 37 21 67 20 28 39 35 21 27 32 34 20 39 23 32 24 30 26 20 28 30 31 31 21 30 20 36 26 22 24 23 43 20 23 25 20 21 20 23 24 23 20 23 30 24 35 21 24 20 22 26 20 20 27 20 69 25 20 40 21 20 21 28
internal_value=0.121291 0.147749 0.173905 0.0839553 0.0545971 0.192129 0.203108 0.0655254 0.00784339 0.061022 0.123184 0.214901 0.0830143 0.0512421 0.0554471 0.102396 0.091245 -0.0233926 0.0715964 0.114318 0.130079 0.0823676 0.133464 0.141509 0.2361 0.181398 0.173446 0.191466 0.179841 0.0698129 0.131687 0.083397 0.0242439 0.036386 0.0900147 0.169353 0.200773 0.18703 0.178257 0.158309 0.11112 0.190512 0.128812 0.056941 0.202157 0.164508 0.0259002 0.0310133 0.247839 0.228411 0.0300544 0.222952 0.0204679 0.0355593 0.182128 -0.0389518 0.0422203 0.233398 0.0723779 0.105483 0.146952 0.184409 0.198066 0.0414284 0.0820059 0.169962 0.24678 0.257044 -0.00238783 0.0283165 0.0589483 0.0141733 0.0451615 0.0804558 -0.022931 0.00589654 0.00982071 0.0331781 0.116567 0.221827 0.186837 0.0196738 0.00749372 -0.00894784 -0.0276526 0.027013 0.246716 0.205137 0.276061 0.12807 0.144043 0.184966 -0.0333257 0.241533 0.192365 -0.000704502 0.236874 -0.0113094 0.262237 0.241325 -0.066734 -0.00127262 -0.0305103 -0.0625118 0.263545 0.271754 0.237604 0.287565 0.291134 -0.0648392 0.219538 0.300745 0.302635 0.291196 0.309869 0.309869
internal_weight=0 574.883 436.144 73.4794 215.457 362.665 312.848 138.739 81.4501 30.139 49.8166 268.511 134.007 66.5051 128.527 37.1133 25.1574 51.3111 30.6372 67.5014 57.289 29.8899 16.4395 15.4431 140.981 24.9083 25.6555 127.53 105.362 24.161 44.3367 19.4285 50.0656 91.4134 20.923 24.9083 22.9156 100.131 90.417 62.0216 25.1574 36.8643 12.7032 24.9083 20.4248 14.4468 10.2124 50.5638 116.073 68.7468 16.4395 24.161 70.4904 55.0473 27.3991 45.5821 14.945 15.6922 17.6849 13.6996 17.1867 11.956 19.6775 42.095 18.4321 16.4395 52.3074 47.3257 11.2087 19.1794 13.9486 41.5968 22.6665 15.6922 18.9303 17.4358 23.6629 18.4321 13.4505 28.3954 15.4431 45.8312 39.3551 33.8753 28.1464 10.9596 22.1684 11.4578 47.3257 13.2014 11.4578 11.2087 15.4431 11.7069 10.2124 13.2014 16.4395 11.2087 14.6959 10.2124 28.1464 9.96331 11.4578 17.1867 12.9523 39.3551 12.4541 26.9009 37.3624 11.2087 9.96331 21.9193 27.6482 10.7106 22.4174 16.9376
internal_count=3173 2308 1751 295 865 1456 1256 557 327 121 200 1078 538 267 516 149 101 206 123 271 230 120 66 62 566 100 103 512 423 97 178 78 201 367 84 100 92 402 363 249 101 148 51 100 82 58 41 203 466 276 66 97 283 221 110 183 60 63 71 55 69 48 79 169 74 66 210 190 45 77 56 167 91 63 76 70 95 74 54 114 62 184 158 136 113 44 89 46 190 53 46 45 62 47 41 53 66 45 59 41 113 40 46 69 52 158 50 108 150 45 40 88 111 43 90 68
is_linear=0
shrinkage=1


Tree=1
num_leaves=119
num_cat=0
split_feature=27 26 24 22 3 9 24 26 3 26 4 22 22 23 26 26 4 27 21 27 4 1 11 24 22 27 0 24 22 24 4 9 21 4 2 7 13 19 27 22 19 19 23 13 26 27 6 11 11 24 22 8 13 22 2 4 4 14 24 27 15 23 19 18 6 4 13 11 3 3 2 0 7 2 18 6 26 13 4 24 1 18 1 15 2 15 19 0 4 14 1 4 27 9 13 19 26 13 0 14 27 13 15 2 7 24 14 15 18 11 13 23 11 21 26 22 26 0
split_gain=67.7179 97.9001 46.0478 59.6844 20.4507 19.4788 15.0456 13.6232 12.374 13.9451 12.06 11.8305 11.0247 10.5044 9.81836 9.80993 8.76882 8.70586 12.1224 8.90828 8.62464 8.54152 8.40235 8.34311 8.19517 8.12284 7.84989 7.76845 7.49341 7.59629 7.47324 7.32943 7.32767 7.39252 8.41077 7.17851 7.3017 6.96013 6.8888 6.56579 6.37052 8.12149 8.08948 6.24243 6.05963 6.44467 8.7821 5.98644 6.34814 5.98464 7.59694 7.98845 9.88568 7.28144 6.82966 8.39775 5.98455 5.94418 5.76278 5.73728 5.54495 5.37414 5.36022 11.4325 5.02497 4.99074 4.83179 4.56359 9.36849 6.79236 8.30734 4.56165 4.30456 7.54445 4.18013 4.04579 4.03661 3.84469 3.82066 3.67734 3.65943 3.59014 3.57377 3.56854 3.51723 3.4001 3.26772 3.22244 3.16231 3.12127 3.08209 2.89415 2.87985 2.85125 2.83381 2.76646 3.77552 2.50428 2.4954 2.28774 9.32213 1.94174 1.87755 1.69206 1.64102 1.53516 1.35903 1.1279 1.06779 0.847475 0.659086 0.862916 0.176953 0.148997 0.0399247 0.0254913 0.0175786 0.00561981
threshold=0.90450000000000019 0.81150000000000022 1.0265000000000002 1.0265000000000002 1.9205000000000003 1.0155000000000001 0.82250000000000012 1.2240000000000004 0.63950000000000007 0.76750000000000018 -0.15549999999999997 0.97150000000000014 0.87650000000000017 0.98450000000000004 0.88350000000000006 0.97050000000000003 1.4855000000000003 1.0285000000000002 0.89550000000000007 0.93250000000000022 0.64850000000000019 -0.15249999999999997 1.4915000000000003 0.6665000000000002 0.75750000000000017 0.73350000000000015 1.1145000000000003 0.94450000000000001 0.78450000000000009 0.73550000000000015 0.63450000000000017 0.93050000000000022 0.66350000000000009 0.71850000000000003 0.5375000000000002 1.2945000000000002 1.3685000000000003 -0.13249999999999998 0.6735000000000001 0.73650000000000004 1.4500000000000002 -1.1574999999999998 1.0715000000000001 0.65550000000000008 0.83650000000000013 0.85250000000000015 0.21000000000000002 0.88350000000000006 -0.33449999999999996 1.4245000000000003 1.0545000000000002 1.0000000180025095e-35 1.0575000000000003 0.89150000000000007 -0.77149999999999996 0.13450000000000004 -0.83249999999999991 0.61450000000000016 0.75750000000000017 0.85450000000000015 1.0905000000000002 0.98950000000000016 -1.0084999999999997 -0.44949999999999996 -0.22549999999999998 -1.2744999999999997 1.0935000000000004 0.31950000000000006 1.1045000000000003 1.0835000000000001 -0.52699999999999991 0.59450000000000014 -0.89149999999999985 -0.16049999999999998 -0.18249999999999997 0.045500000000000006 1.0195000000000001 0.64250000000000018 -0.45249999999999996 0.87550000000000006 -0.05149999999999999 0.20850000000000002 -0.61549999999999983 0.029500000000000002 -1.0000000180025095e-35 -0.44849999999999995 0.46850000000000008 0.74550000000000016 0.45100000000000007 -0.27349999999999997 0.39450000000000007 -1.2744999999999997 0.9295000000000001 1.3815000000000002 0.70250000000000001 0.52050000000000007 0.91150000000000009 0.59750000000000003 0.96350000000000013 0.7855000000000002 1.0545000000000002 1.1445000000000001 -1.2929999999999999 -0.72749999999999992 -0.73749999999999993 0.73250000000000004 -0.5804999999999999 0.16450000000000004 -0.17149999999999996 0.83950000000000002 1.2745000000000002 0.99150000000000016 -0.96549999999999991 0.81650000000000011 1.2615000000000001 0.91550000000000009 0.71150000000000013 0.7855000000000002
decision_type=2 2 2 2 2 2 2 2 2 2 2 2 2 2 2 2 2 2 2 2 2 2 2 2 2 2 2 2 2 2 2 2 2 2 2 2 2 2 2 2 2 2 2 2 2 2 2 2 2 2 2 2 2 2 2 2 2 2 2 2 2 2 2 2 2 2 2 2 2 2 2 2 2 2 2 2 2 2 2 2 2 2 2 2 2 2 2 2 2 2 2 2 2 2 2 2 2 2 2 2 2 2 2 2 2 2 2 2 2 2 2 2 2 2 2 2 2 2
left_child=1 5 3 28 15 8 47 21 9 10 13 12 32 -1 20 31 17 18 19 -17 43 -6 49 -12 58 88 30 -28 -2 98 37 -4 33 34 75 36 67 -8 -25 77 41 -14 59 -13 -41 71 -47 48 80 50 53 52 -52 74 83 57 91 64 -10 60 65 -21 63 -16 -56 -43 104 68 107 70 -69 -46 -67 -74 -19 -3 95 -34 -72 -45 -5 -53 -9 -51 -37 -57 -87 -70 93 -11 -22 -15 -31 -7 -71 109 -97 -73 -30 102 -101 -98 -94 -99 -20 -50 -79 -26 -105 112 114 -112 -64 -108 115 -104 -109 -114
right_child=2 11 4 6 7 25 26 82 24 89 23 14 40 56 62 16 -18 22 66 61 90 -23 -24 38 35 -27 27 -29 29 92 -32 -33 39 -35 -36 84 -38 -39 -40 44 -42 42 -44 79 45 46 -48 -49 105 54 51 81 -54 -55 55 85 -58 -59 -60 -61 -62 -63 76 -65 -66 72 -68 69 87 94 78 97 73 -75 -76 -77 -78 106 -80 -81 -82 -83 -84 -85 -86 86 -88 -89 -90 -91 -92 -93 99 -95 -96 96 101 103 -100 100 -102 -103 110 108 -106 -107 113 116 -110 -111 111 -113 117 -115 -116 -117 -118 -119
leaf_value=-0.10301944036240421 -0.046424595006549184 -0.021410121404542973 -0.12936026475199525 -0.029937321705613879 0.090593754597266624 -0.0037741543940080276 0.085067872556705698 -0.083057865785251803 0.081032455136345855 0.032691809436370782 -0.0052441815213547455 -0.01255438641883566 -0.055867445293424328 0.058193830015229278 -0.043852161952757582 -0.11074973359020744 -0.077076081143656439 0.06252802954041177 0.10146383960165795 -0.030269650020231648 0.024090616853651034 -0.078626663046123202 -0.096724227106863042 -0.045299252205405621 -0.14808867120709243 -0.032350130967085493 -0.17025477359797106 -0.016262756847834882 -0.022856937727213752 -0.093471463278734027 -0.095406981665442495 0.020284640743956361 0.063379489878331557 0.098935384532575055 -0.1124087011566824 -0.057111640296550907 0.016541101881206114 -0.040548819886233184 -0.19337992667613899 -0.021068813050001491 -0.066193206227012011 -0.015572319859963985 0.13521824109539485 0.15608378099913658 0.036571035791359209 0.092453411404193497 -0.068602952839941375 -0.05048890564130426 0.089677989308022427 0.15624746223755345 -0.034984194581334845 -0.095080654652251573 0.14033004166497945 -0.11608488094776469 -0.14072299690961071 0.1314168951649381 0.12917262084892475 0.052230987358255501 -0.055022670045042327 -0.044633374919750987 -0.041383694680626831 0.098650683273470582 0.16048591184865368 0.14043575325385324 -0.010504657504290459 0.14500902248973244 0.051812281196686655 -0.11806005392755799 -0.11438561707899285 -0.08553284217094885 -0.044511506865460404 0.064076365013718356 0.13388194147948917 -0.021006081842123214 -0.054939079691050378 0.10217423852601669 0.066451520943407338 0.11209241096989325 0.07781242633035107 0.062458028312208695 0.080112308073776894 0.020929915283429922 -0.18863998234720677 0.052045477181620392 0.05140203786152036 -0.010615764464388154 0.094470263399148408 -0.0045679493235361605 0.13284778127797356 0.13422977646425024 -0.087353413232853006 -0.048301915063111489 -0.12842137750323224 0.10219367890839282 -0.18757449341247423 0.044481477178875378 0.17132624755445411 0.099149397721297355 -0.11849884141699288 -0.027853465755508705 -0.2022237119572039 0.096105203176976642 -0.20983351501786218 0.12335772091690314 0.17269507380443216 0.16655105477399973 0.15975823858807028 -0.19478483231124999 0.18259458574902515 0.13671038772608457 -0.19824371537872928 -0.14243060719640022 0.18515685458467207 0.18286990379866963 -0.19569872418780676 -0.20183156473506841 -0.2027946927905005 0.18054828886599866
leaf_weight=5.7278436273336437 7.959205910563468 5.7097333222627693 8.1943150162696821 6.4507950246334103 5.2120246887207031 5.2161919623613411 8.6895119398832339 4.9863419085741034 5.47628206014633 5.9395163208246231 7.2099744975566891 5.4631838947534588 9.6924161314964277 5.2331891506910342 6.1732169538736343 4.9657664746046093 8.9540667831897718 5.6970431059598923 4.9332472532987586 5.4604310542345029 4.9489911794662458 6.9741234779357928 6.9600912183523169 4.989874616265296 7.2210860848426881 8.9494347125291807 8.2146314829587919 5.4489788115024558 5.2124143093824369 5.2311938852071753 7.9614879935979834 5.4497640281915656 6.6664034426212337 8.1567653715610486 5.962314933538436 7.4702088236808777 5.215838596224784 8.9579809010028857 8.4813260287046415 7.196652114391326 8.1893091946840268 5.9441019147634462 8.1614019721746427 8.6175478696823138 8.4460529386997205 7.4437061846256238 6.2103201001882553 4.9730977267026892 5.1972131580114365 6.4545815140008909 4.9573355764150628 5.2272105813026428 9.1588736921548826 9.7007779479026777 5.4664362370967812 5.6927159577608135 6.4716439098119727 5.9481788426637641 7.2144416868686676 8.9435451328754407 5.9688446521759024 7.9282184243202209 5.4119636416435233 7.4032574295997602 6.4718106985092234 8.1477775871753657 8.1751304715871793 7.9801777005195609 5.4822210818529111 4.9884830266237241 4.9886794835329038 5.9252930432558086 5.9323540925979561 6.6925958842039268 6.4696174561977404 4.9415430873632431 9.1689502000808698 5.4522539526224181 5.2305762469768595 8.1745487749576551 5.6840220987796792 5.4476327002048492 8.9782468080520612 6.6960060000419617 4.9770745038986188 6.4657820016145688 5.4560093581676483 5.2126816958189011 7.6751115173101416 6.1747735738754255 4.9774777889251709 4.9804964661598206 5.2312513589858929 4.9474905282258987 5.9888737052679062 5.9117032289505032 8.1630614846944791 7.1658749431371698 5.7234429866075516 4.979321673512457 7.9790186285972595 5.9208072274923316 8.2030755728483289 4.9472154080867758 9.3910452872514742 5.1939554512500763 4.9303867518901789 5.242868557572363 7.9057371616363534 8.8867378979921323 6.2403908073902112 4.9812999814748764 4.9608510434627586 6.423781618475914 4.9881107807159415 7.7349889427423468 5.7391548901796341 5.6705176383256912
leaf_count=23 32 23 33 26 21 21 35 20 22 24 29 22 39 21 25 20 36 23 20 22 20 28 28 20 29 36 33 22 21 21 32 22 27 33 24 30 21 36 34 29 33 24 33 35 34 30 25 20 21 26 20 21 37 39 22 23 26 24 29 36 24 32 22 30 26 33 33 32 22 20 20 24 24 27 26 20 37 22 21 33 23 22 36 27 20 26 22 21 31 25 20 20 21 20 24 24 33 29 23 20 32 24 33 20 38 21 20 21 32 36 25 20 20 26 20 31 23 23
internal_value=0 0.0264952 -0.0332287 -0.0765645 -0.00132973 -0.0328906 -0.00791542 -0.0835153 -0.0474906 -0.0103444 -0.0369913 0.0638403 0.0478818 0.0138245 0.0911947 0.011639 0.0189266 0.0249327 0.0639545 0.00364389 0.0457235 -0.00625096 0.00934463 -0.0920628 -0.0706821 0.0453939 -0.0476366 -0.108844 -0.138122 -0.149097 -0.0149799 -0.0695886 0.0684055 0.0209698 -0.0173089 -0.0831435 -0.0967965 0.021304 -0.138529 0.083333 0.0164971 0.0278815 0.0441843 0.0802973 0.0645064 0.077325 0.0191994 0.0488121 0.070735 0.0170904 -0.00849738 0.0293997 0.0787631 -0.0514612 0.04163 0.0188263 0.0539355 -0.029439 0.00368763 0.0263371 0.0457563 0.0460718 0.112819 0.0566401 -0.0701307 0.0652243 0.113154 -0.106976 -0.135143 -0.0790776 -0.0416051 0.100403 0.0883443 0.0517745 6.49357e-05 0.0359255 0.126919 0.127639 0.0180982 0.110506 0.0216106 -0.0358776 -0.15094 0.10319 -0.0137222 0.0678367 0.0374769 -0.0608606 0.0843968 0.0844467 -0.0317913 0.00626334 -0.164089 0.047809 -0.141203 0.139259 0.111551 0.121183 -0.0729125 -0.171428 -0.135221 0.139704 -0.18398 0.138086 0.148163 0.128102 0.153129 -0.178786 0.159794 0.161483 -0.193021 -0.173468 0.175206 0.172834 -0.203506 -0.20595 -0.198971 0.182699
internal_weight=0 441.435 333.108 141.235 191.873 170.426 66.7717 26.1507 143.637 55.2086 43.0943 271.009 171.156 22.4132 99.8528 165.722 152.078 143.124 40.8538 18.3544 32.1817 12.1861 102.27 20.6812 88.4286 26.7882 39.2726 13.6636 74.4637 66.5045 25.609 13.6441 103.484 24.7704 16.6136 75.7379 63.2906 17.6475 13.4712 78.7137 67.6723 59.483 49.7906 22.2553 55.2409 48.0442 13.654 27.4991 22.526 95.31 46.6585 24.7911 14.1162 21.8674 48.6515 35.5009 16.6853 17.8864 12.6907 41.6292 32.6857 13.3886 67.6711 13.5765 11.9382 26.7168 22.4994 58.0748 28.898 29.1768 18.1994 34.3902 20.7727 12.6249 12.1667 10.6513 54.0946 23.4728 10.2193 16.7921 12.1348 10.6748 13.9646 13.1506 12.4473 17.6145 11.9218 10.6949 17.8388 12.1143 9.92647 10.2137 55.5687 10.1637 10.9774 44.9256 19.9956 25.9441 10.9359 50.3375 12.9583 14.0839 37.3791 20.0188 14.3243 10.3912 16.8064 18.2031 12.853 24.9301 32.1479 11.2217 16.0433 11.3542 20.9262 15.9381 10.982 10.6314
internal_count=3121 1780 1341 568 773 685 269 105 577 222 173 1095 691 90 404 668 613 577 165 74 130 49 412 83 355 108 158 55 299 267 103 55 418 100 67 304 254 71 54 318 273 240 201 90 223 194 55 111 91 384 188 100 57 88 196 143 67 72 51 168 132 54 274 55 48 108 91 233 116 117 73 139 84 51 49 43 219 95 41 68 49 43 56 53 50 71 48 43 72 49 40 41 223 41 44 182 81 105 44 202 52 57 150 81 58 42 68 73 52 101 129 45 65 46 84 64 44 43
is_linear=0
shrinkage=0.1


Tree=2
num_leaves=117
num_cat=0
split_feature=27 26 22 24 5 22 3 22 5 5 26 3 5 26 14 18 3 1 21 9 27 17 19 0 17 5 26 27 15 15 21 17 10 18 10 2 27 16 0 0 6 7 10 19 5 21 21 27 1 2 24 0 27 14 21 26 24 10 23 22 6 21 6 19 10 19 26 8 24 27 3 1 27 22 23 7 15 7 22 5 7 5 5 22 22 22 9 6 14 16 0 10 14 5 24 0 27 18 26 6 5 24 9 2 26 10 18 26 18 9 26 7 26 18 16 24
split_gain=55.1144 78.9832 44.5125 64.4197 38.3722 17.3619 16.8891 15.04 14.179 12.9361 14.1352 10.217 9.79984 11.2937 10.3956 14.6707 8.85343 12.3978 11.3712 8.76741 8.74894 10.8468 9.14564 8.4876 8.44112 8.15492 8.04343 12.429 7.35817 7.211 7.14587 7.13951 7.05679 7.03973 7.14158 7.60562 6.77669 6.71987 6.69405 6.14597 6.09292 5.86941 5.85539 5.83981 5.72752 5.83922 5.71236 5.70689 6.17145 5.66656 7.534 7.57508 6.54802 6.9372 6.0584 5.76713 5.65978 5.63088 5.618 5.49484 5.9536 5.30447 7.00844 5.18421 4.89906 4.87638 5.97704 5.38052 4.66795 4.59337 4.58523 4.57967 5.19566 6.09646 4.55602 4.51279 4.34222 4.33811 4.22575 6.60589 4.15223 4.14365 4.76525 5.00036 10.321 4.04469 4.05179 3.68484 3.68061 3.40353 3.37329 3.22601 3.07899 3.00406 2.98336 2.64504 2.61781 2.60865 2.56514 2.56477 2.28373 2.27948 3.9922 2.18691 1.99418 1.55075 1.39084 1.14703 1.12606 0.786782 0.230665 0.1737 0.169834 0.0238835 0.0159942 0.00432886
threshold=0.90250000000000019 0.80850000000000011 1.0485000000000002 1.0755000000000001 0.82050000000000012 0.97950000000000015 1.7675000000000003 0.76950000000000018 1.5125000000000002 0.88150000000000006 0.97050000000000003 0.63450000000000017 1.7360000000000004 1.2075000000000002 -0.56549999999999978 -0.8284999999999999 1.6295000000000002 0.23850000000000002 0.79950000000000021 1.0365000000000002 0.83850000000000013 0.71550000000000014 0.059500000000000004 0.9425 1.4295000000000002 1.1275000000000002 0.88850000000000018 0.82650000000000012 0.23550000000000001 0.33900000000000008 0.80350000000000021 1.1645000000000001 0.46050000000000008 -0.56749999999999978 -0.34449999999999992 1.0355000000000001 1.0885000000000002 1.0000000180025095e-35 1.4495000000000002 1.3475000000000004 1.2495000000000003 0.79550000000000021 -0.18749999999999997 0.32050000000000006 1.3745000000000003 0.88850000000000018 0.60350000000000004 1.0835000000000001 -1.0000000180025095e-35 -0.78549999999999998 0.62450000000000017 0.74950000000000017 0.68650000000000022 -0.40849999999999992 0.86550000000000005 0.77250000000000008 0.98550000000000015 -1.1744999999999999 0.99550000000000016 0.88550000000000006 0.88850000000000018 0.96950000000000014 0.11050000000000001 -0.040499999999999994 0.34950000000000003 -0.53849999999999987 0.89250000000000018 1.6300000000000001 0.73550000000000015 1.1285000000000001 0.31950000000000006 -0.73149999999999993 1.1165000000000003 0.9275000000000001 1.2255000000000003 1.1435000000000002 -0.06649999999999999 -0.24649999999999997 1.2375000000000003 1.0275000000000001 -0.13749999999999998 1.0955000000000001 1.0575000000000003 0.85550000000000004 0.90050000000000019 0.83850000000000013 0.65150000000000008 0.42550000000000004 0.63750000000000007 1.0000000180025095e-35 0.46450000000000008 -0.077499999999999986 0.45250000000000007 0.96550000000000014 0.83550000000000002 0.9275000000000001 0.99350000000000016 0.21850000000000003 0.74950000000000017 0.63150000000000006 1.2255000000000003 1.1465000000000003 1.0285000000000002 0.34950000000000003 1.0225000000000002 -0.19849999999999998 -0.61749999999999983 1.4135000000000002 0.5545000000000001 0.75850000000000006 1.1745000000000003 -0.87449999999999994 1.1015000000000004 -0.16449999999999998 1.9110000000000003 0.84350000000000003
decision_type=2 2 2 2 2 2 2 2 2 2 2 2 2 2 2 2 2 2 2 2 2 2 2 2 2 2 2 2 2 2 2 2 2 2 2 2 2 2 2 2 2 2 2 2 2 2 2 2 2 2 2 2 2 2 2 2 2 2 2 2 2 2 2 2 2 2 2 2 2 2 2 2 2 2 2 2 2 2 2 2 2 2 2 2 2 2 2 2 2 2 2 2 2 2 2 2 2 2 2 2 2 2 2 2 2 2 2 2 2 2 2 2 2 2 2 2
left_child=1 4 3 36 49 9 12 38 11 20 74 70 13 40 91 -16 18 69 46 43 21 23 58 30 65 32 27 39 92 -14 -3 37 71 -13 -35 -36 44 -8 80 64 41 78 -30 -12 68 -46 -9 -27 -49 52 54 75 53 -1 -51 59 -25 -28 -22 60 -53 104 -63 -43 94 105 67 -67 -2 -18 -6 -20 73 -73 81 77 -24 -52 101 -80 -5 82 83 87 -85 -70 -87 -11 95 -72 -38 -15 -17 -48 -7 -61 112 -34 -54 -64 -19 102 -4 108 106 -23 -59 110 -83 -79 113 -108 114 -92 -88 -113
right_child=2 5 6 7 8 26 31 16 -10 10 19 33 29 14 15 28 17 100 25 -21 22 24 76 56 -26 47 57 -29 42 -31 -32 -33 97 34 35 -37 90 -39 -40 -41 -42 63 -44 -45 45 -47 93 48 -50 50 51 55 98 -55 -56 -57 -58 61 -60 88 -62 62 99 -65 -66 66 -68 -69 85 -71 89 72 -74 -75 -76 -77 -78 109 79 -81 -82 103 -84 84 -86 86 96 -89 -90 -91 107 -93 -94 -95 -96 -97 -98 -99 -100 -101 -102 -103 -104 -105 -106 -107 111 -109 -110 -111 -112 115 -114 -115 -116 -117
leaf_value=0.030178513680158572 -0.038445217360169745 -0.11847043078643696 0.026522475865973068 0.047671957523142496 0.0035824524981434101 0.092078730378763671 0.060259770447425115 0.0083988277024476567 0.16618352227868891 0.17225513897403863 0.10172209389962927 0.064283220418333092 0.15856044788079734 -0.04052742625890883 -0.097265348477855784 0.061431827287408917 0.050604295752776911 -0.18929181189639618 0.076798183846289794 -0.07481836171945605 -0.17282105021383329 0.085184607358902834 0.087657194392946641 -0.0220826913771754 -0.057310533420939891 0.14526479251947771 0.029953425388680815 -0.081069960979559375 -0.049637800916731617 0.010722881832410991 0.01201112790352956 -0.15355508067178744 -0.13145773973327615 -0.13314344588006785 0.046087405767179984 -0.10828717634462506 -0.091577160069457028 -0.085156033809576578 -0.0090403204839470327 -0.023615756764879828 -0.046568579336995576 0.06129847295994624 0.077141311822048017 -0.016581166988729273 -0.11233051620438486 0.039305494544442592 -0.17118980195176631 -0.053765619021009285 0.10417820541975131 0.098808104199070323 -0.068715388342959469 0.041604458270647474 -0.18084486787740325 -0.10899851497098939 -0.038943391139302785 0.029449189591094556 0.11508338145910935 0.12001663998209189 -0.032330241344297302 -0.05923428595414279 -0.096259315672200765 0.15744855462485455 -0.030769187718412694 -0.058818780342178058 0.031685969281400446 -0.056495081527723569 0.12775434236412417 0.074312460427994997 -0.07348104465137266 -0.07121137773959646 0.15432555253500047 0.011154681469036504 0.072253074672848236 -0.13441356181502584 -0.0023993233010651954 -0.022035372088639538 -0.029386394544765933 -0.14240633618404133 -0.040298512655912902 0.10220960857726812 0.16770744552799982 0.17435018085098505 -0.012960403032114041 -0.062999464655765933 0.1145608580399371 -0.069096891703740629 -0.19785209732214892 0.068938242673649314 -0.018582482259284834 0.04911495255466089 -0.20070828569591331 -0.1307376505250791 0.16672865267046538 -0.067441370451370372 0.17866808695941613 -0.14946320393231199 -0.11913320118122013 -0.030200304620139857 -0.10143909655868417 0.071834454625820374 -0.1010543300635649 0.1539886676245398 0.14791548715420275 0.091489239736692651 0.092935006651482188 0.15454753422663881 0.14931046735168993 -0.13776053838639565 0.11616878030363331 -0.19234145565109162 -0.17408351568442851 0.16882056339873633 -0.17290663064941558 -0.19156272875290259 -0.19027966205151539 0.17195441557030466
leaf_weight=5.9727006852626792 6.4640732258558264 9.6600019335746818 5.6806106418371218 4.9430247098207483 6.1502601653337505 9.0502665191888898 5.1946481615304974 4.9514464288949993 7.3802979290485373 8.9641984999179858 8.839315161108976 7.1776576638221767 9.0925214588642103 8.1741010695695859 8.9221514612436277 5.6804248243570346 6.4395945221185702 6.7174713015556318 8.3912955075502413 9.3961513340473157 5.9747156947851199 5.1633920073509207 5.1801013946533194 5.8996882736682874 4.9279915392398825 6.5966293513774898 7.5631342828273764 5.931320756673812 8.4075900763273186 5.1783621907234183 7.4219299405813208 6.9634149074554434 5.227382153272627 6.9687424600124404 8.9279091060161537 4.9669069796800622 5.9579316526651374 8.1853504627943021 6.4341536313295355 4.9151675999164572 5.9437629133462897 8.1198142319917661 6.4284714460372951 7.9033442437648764 4.9606147557497007 5.2032283395528793 5.7277700304985029 4.948914736509324 4.9466751664876911 5.4493134617805463 7.7044135481119218 8.4570781439542753 8.9651273936033267 8.9450073689222354 7.710092306137085 9.6210375130176526 6.1378118842840195 9.4621042609214729 5.4360467344522476 4.9586527347564724 4.9751690924167624 6.0739204287528983 4.8671142756938917 6.4452073425054541 7.354108750820159 6.1811598092317599 6.5655300915241233 6.4008767306804657 9.7038664817810041 5.9607454836368561 7.1366404294967634 6.8813820183277148 4.9575174301862708 4.9441131800413132 4.9071426540613166 4.9775398671627036 8.1671139597892743 7.4672780185937864 5.687299966812132 7.5987271517515182 6.9107643216848382 9.501306816935541 5.1597418934106818 5.196493223309516 8.8469793349504453 5.4573484361171749 5.2360182851553017 5.6139049381017676 4.9772974699735633 5.4022753834724426 4.9630347341299075 7.6969815194606772 5.4331163465976715 5.4431205540895462 7.1010870635509482 9.4227466881275159 8.6646884083747846 4.9568473249673843 7.4480574131011954 4.8779226392507553 5.2066688984632492 8.3149432688951475 5.1789515465497971 9.0771034210920316 6.8859163820743552 8.5778187811374647 5.0583945810794821 6.4074796587228766 5.1186666190624228 5.4642308801412582 8.9056545794010145 9.1581805795431226 5.9439733028411856 6.7242672294378316 5.9690664112567902 8.4975136667489988
leaf_count=24 26 39 23 20 25 37 21 20 30 37 36 29 37 33 36 23 26 27 34 38 24 21 21 24 20 27 31 24 34 21 30 28 21 28 36 20 24 33 26 20 24 33 26 32 20 21 23 20 20 22 31 34 36 36 31 39 25 39 22 20 20 25 20 26 30 25 27 26 39 24 29 28 20 20 20 20 33 30 23 31 28 39 21 21 36 22 21 23 20 22 20 31 22 22 29 38 35 20 30 20 21 34 21 37 28 35 21 26 21 22 36 38 24 27 24 35
internal_value=0 0.0225797 -0.0309539 -0.0609824 -0.0318243 0.0553042 0.012712 -0.00977007 0.037375 0.0369567 0.0642239 0.0170318 0.0272215 0.0165307 -0.0171846 0.0133508 -0.0261859 -0.0779593 -0.00765849 0.00249064 0.0106321 0.029418 -0.0401581 -0.0164564 0.0647419 0.0151487 0.0894641 0.0505989 0.0513835 0.104916 -0.0617775 -0.0714369 -0.0119361 -0.0211413 -0.0505298 -0.00909607 -0.123519 -0.0286998 0.0730789 0.0780778 0.0488289 0.0608866 0.00529564 0.0458772 -0.102827 -0.0347027 -0.0810082 0.0732171 0.0251884 -0.0651034 -0.0511621 -0.0645607 -0.101228 -0.0532753 0.0180995 -0.038628 0.047857 0.110845 -0.105892 -0.0586022 -0.0094589 0.121992 0.0731386 0.00814506 0.0993427 0.0830301 0.0504103 0.0100508 -0.117422 -0.00795154 0.0743067 0.0164785 -0.0136805 -0.0497058 0.0900894 -0.107501 0.0160386 -0.128116 0.0845516 0.0412067 0.117653 0.0979855 0.0754977 0.0914444 0.0488584 -0.129882 -0.147383 0.132469 -0.0927008 0.108997 -0.159683 -0.0842766 0.112909 -0.120637 0.130149 -0.118353 -0.163934 -0.0821739 -0.144812 0.0205895 -0.150763 0.114585 0.0844151 0.130043 0.141777 0.128484 0.152229 -0.174711 0.15398 -0.163507 -0.186208 0.165648 -0.18657 -0.195446 -0.193818 0.170329
internal_weight=0 443.641 339.473 201.147 166.626 277.015 138.326 110.586 54.1107 180.219 88.5243 46.7304 117.983 103.712 50.7428 34.8718 92.2976 24.3245 67.9731 26.1388 91.6942 66.9362 24.758 29.1194 37.8168 51.8508 96.7962 34.352 25.9496 14.2709 17.0819 20.3434 35.3585 28.0412 20.8636 13.8948 90.5612 13.38 18.2879 28.4206 52.9693 47.0256 14.8361 16.7427 57.6029 10.1638 16.1223 16.4922 9.89559 112.516 81.1848 68.0254 31.3309 14.9177 13.1594 42.412 12.0375 62.4442 11.4108 32.7909 13.4322 54.8811 15.819 14.565 23.5055 32.8888 19.1476 12.582 47.439 12.4003 18.6892 25.1743 16.783 11.8255 62.3855 25.6135 13.3472 20.6359 32.4605 13.286 11.8538 57.4784 33.7813 28.6216 14.0435 40.975 31.2711 14.5781 19.3587 12.5389 32.9584 15.8711 11.1135 11.1709 16.1514 14.3814 25.8137 10.1842 16.4132 9.74504 11.9241 19.1745 10.8596 23.6971 39.0621 13.7412 32.1762 27.0004 14.62 12.9315 20.593 22.7141 17.1491 11.6873 11.2051 17.6557
internal_count=3174 1802 1372 812 672 1130 560 447 219 733 361 189 478 420 205 141 373 98 275 106 372 272 100 118 154 210 397 140 105 58 69 82 143 113 84 56 365 54 74 116 215 191 60 68 232 41 65 67 40 453 327 274 126 60 53 171 49 257 46 132 54 226 65 59 96 134 78 51 191 50 76 102 68 48 255 103 54 83 132 54 48 235 138 117 57 165 126 60 78 51 133 64 45 45 66 58 104 41 66 40 48 78 44 97 161 56 133 109 60 52 83 94 69 47 45 73
is_linear=0
shrinkage=0.1


Tree=3
num_leaves=121
num_cat=0
split_feature=25 25 26 27 5 5 25 13 22 26 5 21 26 25 27 24 0 13 22 9 24 5 27 21 11 22 9 27 17 21 22 24 0 17 25 23 27 24 17 5 22 0 25 9 9 14 20 9 25 17 1 9 27 14 27 5 5 5 17 1 1 14 19 25 25 6 10 19 27 24 6 14 14 25 1 9 9 21 22 16 5 18 18 18 27 17 27 22 27 27 10 25 13 14 1 24 9 19 18 22 11 21 25 26 18 10 0 14 26 13 25 27 19 1 16 0 26 5 5 17
split_gain=100.692 89.7435 44.858 29.1582 27.5738 16.2586 16.068 15.9174 14.911 14.1504 13.8538 13.6703 12.604 22.9013 12.1199 11.9984 10.3642 8.34913 7.92886 7.94552 7.85976 8.33726 7.67635 7.12784 6.98012 7.31391 6.80671 7.2313 9.57095 6.75245 10.443 14.13 8.39341 6.69128 6.52634 6.40622 6.19841 6.19308 6.06735 6.01289 5.98325 10.4986 5.98207 5.8974 5.91614 5.89122 5.86723 7.00482 5.84415 5.61937 5.53115 6.12092 5.44999 5.43304 5.20358 5.12986 6.45309 5.02655 4.9286 4.92423 6.80399 4.77269 4.75416 4.60387 4.46621 4.39278 3.9168 3.90838 3.59857 3.53785 3.52492 3.47221 3.39764 3.39264 3.38659 3.3805 3.37814 3.33386 6.00777 3.25614 3.07855 2.8137 2.80054 2.7704 2.76074 3.3198 2.71101 2.70486 2.67404 3.94133 2.6394 2.98559 2.38453 4.24219 2.42771 2.33612 2.18688 1.9571 1.89492 1.85749 2.53018 1.79195 2.29393 3.93264 2.81327 1.71784 1.43097 0.970277 0.947153 0.770175 0.621856 0.615971 0.554868 0.164456 0.0911299 0.058051 0.0283543 0.0221839 0.0108374 0.00936701
threshold=1.0675000000000001 0.59250000000000014 0.77650000000000008 0.85750000000000004 0.82050000000000012 1.1275000000000002 1.8760000000000001 0.94450000000000001 1.0375000000000003 0.87950000000000006 0.88650000000000018 0.86550000000000005 0.85850000000000015 0.85550000000000004 0.81650000000000011 0.95050000000000001 1.2355000000000003 1.5545000000000002 0.75250000000000006 1.1275000000000002 0.83550000000000002 1.0815000000000003 1.0925000000000002 0.6585000000000002 1.0375000000000003 0.78450000000000009 1.2615000000000001 1.1165000000000003 1.0795000000000001 1.0535000000000003 1.0045000000000002 1.0035000000000001 0.9165000000000002 0.6735000000000001 0.96550000000000014 1.0785000000000002 0.60450000000000015 1.2565000000000002 0.96050000000000002 0.73850000000000005 1.2695000000000001 1.2835000000000003 0.90950000000000009 0.67850000000000021 0.5655 0.92850000000000021 2.3265000000000002 1.0285000000000002 0.78850000000000009 0.66550000000000009 0.32150000000000006 0.96650000000000003 0.9385 -1.0814999999999999 1.1225000000000003 0.86450000000000016 0.81650000000000011 0.82950000000000002 1.0945000000000003 -0.47949999999999993 0.71150000000000013 -0.10949999999999999 0.028500000000000004 0.67850000000000021 0.52350000000000019 1.0535000000000003 -0.31599999999999995 -0.37449999999999994 0.91150000000000009 1.1275000000000002 -0.028499999999999998 0.39950000000000008 -0.37849999999999995 0.7985000000000001 -0.26249999999999996 0.96150000000000013 0.83350000000000002 0.74850000000000005 0.85550000000000004 1.0000000180025095e-35 0.7945000000000001 -0.05149999999999999 -0.6865 0.058500000000000003 0.89350000000000007 1.0255000000000003 1.0285000000000002 1.0165000000000002 0.83850000000000013 0.74550000000000016 -0.53949999999999998 1.4335000000000002 0.68550000000000011 0.37750000000000006 -0.018999999999999996 1.3605000000000003 0.85550000000000004 -0.59349999999999981 0.90550000000000008 0.97750000000000015 -0.057499999999999996 0.84350000000000003 0.87650000000000017 0.94150000000000011 -0.32849999999999996 -0.75949999999999995 1.0265000000000002 -0.12149999999999998 0.70250000000000001 0.95150000000000012 0.78150000000000019 0.92450000000000021 -0.32649999999999996 0.93950000000000011 1.0000000180025095e-35 0.72550000000000014 1.2615000000000001 0.8045000000000001 0.94950000000000012 1.0905000000000002
decision_type=2 2 2 2 2 2 2 2 2 2 2 2 2 2 2 2 2 2 2 2 2 2 2 2 2 2 2 2 2 2 2 2 2 2 2 2 2 2 2 2 2 2 2 2 2 2 2 2 2 2 2 2 2 2 2 2 2 2 2 2 2 2 2 2 2 2 2 2 2 2 2 2 2 2 2 2 2 2 2 2 2 2 2 2 2 2 2 2 2 2 2 2 2 2 2 2 2 2 2 2 2 2 2 2 2 2 2 2 2 2 2 2 2 2 2 2 2 2 2 2
left_child=1 7 4 12 36 9 8 18 10 83 55 96 13 53 67 90 34 29 33 20 21 49 71 39 25 -17 35 -28 -29 30 31 68 42 -1 -15 45 -3 99 -39 -14 41 70 57 44 -38 50 47 -27 -33 74 51 -10 64 -4 80 56 77 -31 -34 -51 -61 87 81 -25 79 98 -49 -12 -11 88 -24 82 -50 -63 -20 -73 -41 -2 -79 -13 111 -45 -7 -5 85 -80 -19 -6 89 -22 -16 -92 93 94 -65 -74 -9 -42 105 116 -101 113 110 104 -104 -55 -35 -86 -64 117 -103 -32 -84 115 -90 -94 -8 -107 -117 -112
right_child=6 2 3 5 61 22 37 11 26 17 14 52 23 16 15 24 -18 86 19 -21 69 -23 40 63 -26 46 27 28 -30 32 54 48 58 106 -36 -37 43 38 -40 76 97 -43 -44 62 -46 -47 -48 66 72 59 -52 -53 -54 65 -56 -57 -58 -59 -60 60 -62 73 108 92 -66 -67 -68 -69 -70 -71 -72 75 95 -75 -76 -77 -78 78 84 -81 -82 -83 112 -85 107 -87 -88 -89 114 -91 91 -93 101 -95 -96 -97 -98 -99 -100 100 -102 102 103 -105 -106 109 -108 -109 -110 -111 119 -113 -114 -115 -116 118 -118 -119 -120 -121
leaf_value=-0.082928896495145177 -0.16788012259881652 0.034769565622026093 0.0043001795265789847 -0.1489083642827326 -0.038275080176337843 0.077367043248933523 -0.17972955570810292 -0.12344344325583499 -0.1095331341438448 -0.011725016820279457 -0.0042421825659545477 0.08097908652525404 -0.040376382711336041 0.061809311804545422 -0.051421373394159767 0.088516631565468587 -0.15843786149750716 0.15511607481562956 -0.072661454842304907 0.010726386768422981 -0.16886139945668274 0.044303841621054996 0.10738183920609619 0.040210782924773689 -0.10152772085302467 0.075267983034354946 0.11179488351160807 0.073655426117078204 -0.10939020785375796 -0.091011103560052875 0.12424385957967379 -0.031938236246813315 0.073921483925889167 0.0084642559894738262 -0.075048768978003083 0.067042657557963195 -0.09538646421853611 -0.12083443898195237 0.0035415145992561091 0.15288679574687047 0.13670562400895836 -0.11050019050825122 -0.14808421925372472 -0.12077657299748018 0.017716102698872405 -0.13641045920760977 -0.12281539262598902 0.012239104477869918 0.013394595904140581 -0.12401501273252552 0.048840790591075198 0.0084952336936976579 -0.023007205156850691 0.09048057735459486 -0.0026227386581733837 -0.1918166490733362 -0.0037638727471847318 0.045537448008500875 -0.049277185280144777 0.051831849011513859 -0.095476792433955612 0.16029585100566524 -0.13157898467683082 0.029888138686490352 0.14424117878598727 0.030438782133816445 -0.11097225615981486 0.11259875059843467 -0.1139780516806161 -0.077497059625239076 -0.0060951770043954426 0.0041576926179482778 0.135730716501995 0.052525240269488883 -0.16537137020147819 0.11924284311819705 0.042119607204202048 -0.017350539340395925 -0.1340201996023645 -0.01339187303939595 0.067067762181012167 -0.023312129753601044 0.13251779160969335 -0.045429340518746794 -0.12357502220811528 -0.030816352781038722 0.053233134792602416 0.065481101047144316 -0.19609129677593512 -0.054975973019318537 -0.088923563781716716 -0.17426735242342864 0.17595089025773702 0.16442186446672291 0.11210792574304494 0.055264841935013659 -0.040827661373290192 0.058970786858468266 0.074530267198146094 -0.16944702428952463 -0.071668583368770439 0.12740709746695136 0.0061679603846224416 0.16408437675170728 0.11181735625028094 0.1784819958927196 0.084749892457638865 -0.18376689590571327 -0.18882176647162666 0.12985364514104736 0.16113462912462731 0.1748816724522336 0.17437205866252325 0.14924535791895757 -0.17754952776710853 0.16709966260473386 -0.17007196884631154 0.16955253896587386 0.16047980273332788 0.166622640346757
leaf_weight=6.6956884264946011 7.6574913859367362 4.9718571305274954 5.1096526682376853 5.4316067695617658 4.9090027213096636 5.7958987355232283 4.9115881025791186 6.4113972634077054 9.5929491966962903 5.426785171031951 5.3913670927286148 8.5838444530963951 4.9086473733186748 9.0350593924522418 5.1409795433282879 7.3458448499441173 4.9358118176460257 5.5794728249311429 6.9312405288219479 8.328469365835188 6.8898451477289218 6.1406365036964408 6.1405137032270458 6.0355383455753318 8.3573168367147428 7.3407294452190461 8.7981384992599505 6.3607547432184202 5.1850235611200333 5.6805265098810249 4.7569010108709389 7.6429993063211468 9.4928688108921033 4.9094471633434278 5.671733930706977 5.8756252825260153 9.6431951224803942 9.1668682545423525 6.855292707681655 5.0532842427492124 5.3292905986309043 5.6711910665035239 6.4180913865566245 5.9248063862323752 8.886903449892996 5.9356727600097647 4.9291605800390235 4.9138771742582348 7.1499935239553443 5.4426843076944342 7.1310758590698233 8.1071348041295987 9.1468905657529813 4.8234438747167614 5.1768485605716696 5.9252029359340659 6.8928672820329657 5.1308285892009735 4.9355050623416892 7.4077666848897952 5.4367121160030365 6.108624264597891 5.4234979450702649 7.2037343233823785 5.7877182364463797 5.1443134099245063 5.4323381185531572 6.1044783294200879 9.4091343730688077 9.4100241959094983 4.9392250180244472 4.8987329155206663 7.6244333535432833 5.5978191345930099 9.1303907632827741 5.3288177847862244 6.0493261516094208 7.6611498147249248 6.9234901964664477 6.3689250499010077 8.4490640312433225 5.923218876123431 4.8259836882352856 4.9406379461288452 4.9017976820468903 5.6690105050802231 4.9101399481296539 5.14686319231987 5.4705031365156156 5.4367606639862061 7.8440394252538708 8.585782974958418 6.552379906177527 7.3172062188386908 7.161365509033204 6.8492427617311478 6.4047859311103821 8.2565978765487653 4.860439494252204 4.9613353461027145 5.6720027029514295 7.6129825413227108 4.8261262178421029 5.902472272515296 5.2756651043891916 4.8704933971166664 4.9262539744377136 5.9032543748617154 6.1891315877437592 6.3303549587726584 6.8056460767984372 4.8528854101896286 9.216641873121258 5.9465685784816733 5.1423884928226471 4.9842786937952024 7.9782286435365677 6.4888809025287628 4.9083486944437027 5.7274138182401657
leaf_count=27 31 20 21 22 20 24 20 26 39 22 22 35 20 37 21 30 20 23 28 34 28 25 25 25 34 30 36 26 21 23 20 31 39 20 23 24 39 37 28 21 22 23 26 24 36 24 20 20 29 22 29 33 37 20 21 24 28 21 20 30 22 25 22 30 24 21 22 25 38 38 20 20 31 23 37 22 25 31 28 26 35 24 20 20 20 23 20 21 22 22 32 35 27 31 30 28 26 34 20 20 23 32 20 25 22 20 20 24 25 26 29 20 38 25 21 21 33 27 21 24
internal_value=0 0.0222872 0.0459911 0.0608935 -0.0276915 0.0333351 -0.0578542 -0.0466838 -0.0451679 0.0120152 -0.06477 0.00424474 0.0920308 0.0544705 -0.0362457 -0.0542982 -0.0330519 0.0225909 -0.0689443 -0.0818008 -0.0923805 -0.0630185 0.0756405 0.113064 -0.020716 0.00182489 -0.00288589 0.043497 -0.00854743 0.0136018 0.0315092 0.0029249 -0.0244883 -0.00581994 0.00902944 -0.0286377 -0.0708104 -0.115569 -0.0676185 0.0517875 0.0401508 0.000155604 -0.0716079 -0.0833115 -0.0411433 -0.0469101 -0.0263331 0.000555468 0.0432253 -0.0822048 -0.0255158 -0.0554728 0.0412951 0.100159 0.0857637 -0.104282 -0.0929104 -0.0262082 0.031779 -0.0442986 -0.0105198 0.0653581 -0.116617 0.124438 0.0696535 0.115222 -0.0524537 0.0578022 -0.0765752 -0.129131 0.056795 0.11145 0.0697922 0.108762 -0.125363 0.06412 0.0925346 -0.108782 -0.0942111 0.0407831 0.111101 -0.0720509 0.13585 -0.0996179 -0.119378 -0.0875589 0.107425 0.0148301 -0.150311 -0.118631 -0.113955 -0.133522 0.130775 0.102446 0.0708768 0.0976526 -0.0821569 0.0894636 0.131155 -0.148229 -0.11729 0.141267 0.127497 0.0992349 0.0613434 0.14338 0.0466723 -0.15646 -0.162087 0.157805 0.14995 0.149816 0.159988 0.163497 -0.187107 0.168651 -0.173752 0.173381 0.163815 0.163643
internal_weight=0 548.929 408.527 339.802 68.7249 180.261 219.452 140.402 179.907 119.858 122.92 42.7036 159.541 57.2702 71.3859 59.8901 19.6426 109.486 97.6988 81.1674 72.839 40.4894 60.4029 102.271 38.3193 29.962 56.9864 20.3439 11.5458 98.9961 67.3383 44.1026 31.6578 16.5314 14.7068 36.6425 46.9626 39.5453 16.0222 16.0113 30.3368 16.7509 17.2294 41.9908 18.5301 30.7668 22.6161 17.6869 29.2667 34.3488 24.8312 17.7001 29.8874 37.6276 23.2357 51.5343 45.6091 10.8114 14.4284 18.2872 12.8445 21.7623 23.4607 86.2597 20.7405 32.5179 10.3462 11.4958 14.8359 32.3495 11.0797 30.0661 21.6237 11.7064 16.0616 10.2276 11.1026 38.7162 31.0587 14.9528 18.0589 11.848 19.8385 10.3722 23.3976 12.5925 10.4896 10.0559 22.9395 12.3266 21.5708 16.4298 80.2242 21.6823 14.3651 14.4737 12.8162 13.5859 27.3736 23.5232 10.6333 58.5419 36.1503 16.0043 10.1018 22.5132 9.8357 10.8051 11.6126 17.6897 20.146 9.60979 14.0426 22.3916 10.6129 16.445 12.8898 11.3594 9.89263 12.5331
internal_count=3142 2249 1679 1400 279 737 893 570 732 489 500 174 663 235 291 244 80 447 396 329 295 164 248 428 156 122 232 83 47 404 275 179 129 67 60 149 190 161 65 66 124 68 70 170 75 125 92 72 119 139 101 72 122 155 96 209 185 44 59 74 52 89 95 362 85 134 42 47 60 131 45 124 88 48 65 42 46 157 126 61 75 48 82 42 95 51 43 41 93 50 88 67 337 91 60 59 52 56 113 96 43 246 152 67 42 93 40 44 47 73 85 40 58 94 43 69 53 47 42 53
is_linear=0
shrinkage=0.1


Tree=4
num_leaves=123
num_cat=0
split_feature=25 25 26 5 25 25 21 21 5 24 3 19 25 9 24 3 0 24 0 26 3 0 1 23 21 5 15 11 1 26 9 6 4 19 10 5 21 4 7 5 10 26 26 3 9 0 25 9 21 1 1 5 25 1 4 25 10 4 9 21 10 21 0 4 15 15 14 23 19 25 14 11 16 5 4 14 19 23 2 8 11 6 11 11 19 2 10 6 7 3 2 2 5 8 0 10 10 5 23 5 16 24 4 4 15 0 10 15 23 11 7 11 14 0 19 3 1 10 26 2 8 8
split_gain=82.7113 73.6438 35.5388 22.4559 18.3901 15.5353 14.2917 11.9338 11.7243 11.3231 10.6957 9.51817 10.0251 8.43286 8.23955 8.03088 8.84857 8.13563 7.88209 10.4465 7.75687 9.30467 13.7523 7.49578 7.32529 7.23021 7.19966 7.13293 7.21027 6.85028 6.82601 8.21257 6.64734 6.35694 6.32057 6.3191 6.31826 6.25824 7.38958 6.0737 5.99044 5.96494 9.56692 6.17866 5.96315 6.35323 5.93806 5.89915 5.89545 5.61838 5.57028 7.5439 5.56495 6.48983 5.47027 5.35368 5.33437 5.82295 5.19038 5.80798 5.00082 4.90838 4.83887 4.71807 4.67718 5.49805 5.19753 4.55054 4.4683 4.3467 4.83324 4.26184 4.1629 4.1552 4.114 3.95204 4.30604 3.94093 4.33059 3.62244 3.6121 3.2999 3.03675 3.01201 3.00767 2.95647 2.89452 2.88903 2.7841 3.11233 2.76954 3.04898 5.73965 3.78868 3.35072 2.83258 2.51959 2.47354 2.33429 2.30571 2.14543 1.88961 1.85916 1.84022 2.91707 2.81964 1.71567 1.67093 1.66071 1.56658 1.53314 1.50141 0.965362 1.16562 0.604391 0.494583 0.169102 0.137262 0.0750758 0.0319245 0.0309913 0.0238569
threshold=1.0675000000000001 0.62350000000000005 0.77650000000000008 0.82050000000000012 1.8125000000000002 0.98450000000000004 1.0625000000000002 0.79950000000000021 1.9180000000000001 0.74850000000000005 0.61950000000000005 -1.0864999999999998 0.50850000000000006 0.58450000000000013 1.2285000000000001 1.7315000000000003 1.1145000000000003 0.71050000000000002 1.0375000000000003 0.67850000000000021 1.3845000000000003 1.4035000000000002 0.71150000000000013 0.98750000000000016 1.0870000000000004 1.1885000000000001 -0.25449999999999995 -0.45749999999999996 0.83950000000000002 2.0750000000000006 1.0245000000000002 0.057500000000000009 1.2045000000000001 0.78450000000000009 -0.39949999999999997 0.9275000000000001 0.7965000000000001 0.03450000000000001 -0.13749999999999998 0.95550000000000013 -1.4304999999999997 0.88650000000000018 1.0805000000000002 0.94850000000000001 0.66850000000000021 1.6805000000000001 1.2815000000000001 0.80350000000000021 2.3130000000000002 -1.0000000180025095e-35 0.49250000000000005 0.73850000000000005 0.42850000000000005 0.83950000000000002 -0.27149999999999996 1.3625000000000003 0.57750000000000001 -0.17649999999999996 0.70550000000000013 0.75550000000000017 0.067500000000000018 0.84550000000000003 0.74950000000000017 -0.42349999999999993 0.13750000000000004 -0.79349999999999998 0.045500000000000006 0.98750000000000016 0.047500000000000007 0.88050000000000017 -0.61349999999999982 0.30850000000000005 1.9110000000000003 0.50550000000000017 -0.58149999999999979 -0.5914999999999998 0.028500000000000004 0.99150000000000016 -0.14649999999999996 1.0000000180025095e-35 -0.18649999999999997 -0.5804999999999999 -0.12249999999999998 -0.20999999999999996 -0.32649999999999996 -0.05949999999999999 -0.025499999999999998 -0.65849999999999997 -0.72549999999999992 0.89250000000000018 1.5225000000000002 -0.74349999999999994 0.96850000000000003 1.0000000180025095e-35 0.71250000000000002 -0.10949999999999999 -0.44149999999999995 1.1135000000000004 0.98850000000000005 0.72550000000000014 1.0000000180025095e-35 1.1915000000000002 0.54350000000000021 0.6885 0.064500000000000016 0.87950000000000006 1.3960000000000001 0.27250000000000008 0.99050000000000005 -0.64249999999999996 0.43950000000000006 -1.2679999999999996 -0.39849999999999997 0.83750000000000002 0.45850000000000007 0.46150000000000008 -0.08249999999999999 -0.19849999999999998 1.0095000000000003 1.0105000000000002 1.0000000180025095e-35 1.6300000000000001
decision_type=2 2 2 2 2 2 2 2 2 2 2 2 2 2 2 2 2 2 2 2 2 2 2 2 2 2 2 2 2 2 2 2 2 2 2 2 2 2 2 2 2 2 2 2 2 2 2 2 2 2 2 2 2 2 2 2 2 2 2 2 2 2 2 2 2 2 2 2 2 2 2 2 2 2 2 2 2 2 2 2 2 2 2 2 2 2 2 2 2 2 2 2 2 2 2 2 2 2 2 2 2 2 2 2 2 2 2 2 2 2 2 2 2 2 2 2 2 2 2 2 2 2
left_child=1 7 3 18 8 6 20 13 14 11 39 -9 52 82 15 16 17 46 19 -3 21 40 61 -15 27 41 98 34 37 87 56 81 33 48 -19 99 84 38 -29 -8 47 -7 71 -44 -16 64 -2 -4 69 68 51 -38 53 54 -13 74 75 -58 -18 -60 -25 67 -39 -20 65 -46 -66 -23 -21 70 -12 109 117 80 -26 76 -11 110 -79 -27 -42 -32 -1 -69 -22 -52 -28 -6 102 115 91 92 93 95 -95 -75 -53 114 -5 -36 -35 -91 -89 106 105 -105 111 120 -98 -43 -77 -93 113 -113 -61 -90 -65 -63 119 121 -94 -114
right_child=4 2 5 26 29 25 10 9 -10 30 32 12 -14 23 44 -17 58 24 63 49 36 22 -24 60 55 79 86 28 -30 -31 31 -33 -34 100 35 -37 50 62 -40 -41 73 42 43 -45 45 -47 -48 -49 -50 -51 85 96 -54 -55 -56 -57 57 -59 59 97 -62 72 -64 116 66 -67 -68 83 -70 -71 -72 -73 -74 90 -76 77 -78 78 -80 -81 -82 -83 -84 -85 -86 -87 -88 88 89 101 -92 103 107 94 -96 -97 108 -99 -100 -101 -102 -103 -104 104 -106 -107 -108 -109 -110 -111 -112 112 118 -115 -116 -117 -118 -119 -120 -121 -122 -123
leaf_value=-0.095088629458467688 0.12479505371002186 0.061121392184356554 0.10309348834891213 0.070175472296045677 -0.17186019265366081 -0.09385678302488186 0.033672176550767728 0.11288321746034649 0.087776330403362662 0.0034786591310090147 -0.071224951835760206 0.082843966358210411 0.08429616681310155 0.031441546309225153 -0.090617844986865606 -0.15574900078877582 -0.018628985969307187 -0.19470680835973533 -0.048564269115610438 0.02617581996705853 0.14432226883713084 -0.03614881116462082 -0.094770330443263648 -0.1340770604375498 -0.0068394343357485107 0.020121815155781837 0.058618562195772939 0.10728322344248312 -0.12222256630473874 -0.010663787582242019 0.012742358247126842 -0.070144384632612675 -0.092853258848796083 0.1307745180474236 -0.071318010249681332 0.0096107924006625309 -0.063101388304637324 -0.11836168924837039 -0.045292619109896556 0.16522734125162006 0.10477831087625843 0.048862950021733624 -0.13160762325783737 0.0022726233648759004 -0.028760043338551519 0.11779159141800966 -0.017181125802328636 -0.037594266878817492 0.07475715786306894 -0.14236004506765257 -0.097859423631232303 0.020219974482046803 -0.11827896329922452 -0.10368731512356665 -0.052460776991057327 -0.06528283162168029 0.048529713531099805 -0.072194782977952926 -0.023214054187946073 -0.18676582995984622 -0.010361685071975716 0.16448998812869409 0.012147916357717208 -0.17999847987310877 0.024400484369716736 0.084057915517988649 -0.098127757716464495 0.01875033390734401 -0.10187103552580504 -0.087970044298182115 0.047196254996121151 -0.01129087845454038 0.037826329222826714 0.067205254433913786 0.12135921863431809 -0.1143098867247152 -0.11084358286488549 -0.0039308077898616168 -0.13093844803816798 0.13432652809981113 -0.004365701274842702 0.12420823198675757 -0.17687564960232482 0.12548503711530509 0.054169592165698222 0.0097074860482251404 -0.046663449187436958 -0.10641024478410777 -0.13797647200837879 -0.13181393883536899 0.05371648513894918 0.10241665757785896 0.15700761454537573 0.034177140574073415 0.14356734567249974 -0.041754604337054836 0.14802619718938373 -0.085542409341268694 0.16648748952721221 -0.1639879342031309 0.037515964993875328 -0.044385704560340369 -0.019889857583741219 0.011963014313318386 0.14916250165160405 0.12011050971235654 0.080358428061398673 0.094332204574772205 0.068345622453430996 0.12504992049353042 -0.19020325747715638 0.1055854117597383 0.16082973233479403 0.16198289422084525 -0.14186284018839074 -0.17952539337531354 -0.15366105128073598 0.14023762711097174 0.172613906961812 0.16650644706222631 0.16803236241644642 0.15183254896236342
leaf_weight=9.3126059323549288 5.1576709896326047 7.9132978022098568 5.9064701944589597 4.8329148590564746 9.1403741687536222 7.6253490895032874 6.9890593439340574 8.7368488758802396 7.2440626472234717 7.8995561599731428 5.5902047902345648 7.5805704593658447 9.2173544466495496 8.3944455981254595 6.8413490056991568 7.5510286539793006 6.6061625480651882 5.8949269205331829 5.1474283039569846 6.1526217907667178 6.699044704437255 6.004546791315085 6.041266292333602 8.7895320951938611 4.9021833389997473 5.5847839117050153 4.8582613170146942 7.3370305597782108 6.8987956792116156 6.3476636707782736 5.8613015711307526 8.105710491538046 6.5983315855264655 5.0371777415275556 5.1516588032245583 5.837055265903472 4.8411116749048295 6.3672648668289167 5.5948701351881178 7.0489474982023239 6.1175188273191452 4.7545831352472305 6.157559856772421 7.831351101398468 8.3298418372869509 4.8423862457275382 6.8694306313991547 6.0162011981010437 6.7533055692911139 7.5754479616880408 5.1977322101593018 4.8061033785343179 6.3955431282520285 5.1690256446599951 4.9320864379406029 5.349285200238227 7.3643421381711986 8.733397424221037 4.8980672657489803 7.8332143723964709 5.2005353271961203 4.7145501673221579 5.1296435296535492 4.9030530601739875 5.8939807564020148 8.9727802276611346 8.3901440352201444 5.2162958085536975 4.8921733647584915 8.566289082169531 8.987581700086599 6.2523670196533194 4.7918245941400519 4.7543290853500366 5.1151849627494803 4.8488394767045992 5.6520155519247055 5.1321956962347031 5.6293579787015897 5.52499820291996 6.0122640281915647 4.8566046953201312 8.8581276983022672 5.3612825274467433 8.2678211480379087 5.0257385522127134 5.6463453918695432 5.0906243622302991 4.8330674469471031 4.7875438183546049 7.5360056310892096 7.3407545834779659 4.8185854852199537 4.8182032704353333 6.6854981333017349 4.7893361896276474 5.1665343046188319 4.8373715281486502 5.2502828985452652 5.6071842461824417 4.8342572897672653 5.1115091890096664 4.8495681136846542 4.9734249413013476 7.0039616823196402 4.6787529587745667 4.6590819656848899 5.4591895937919608 5.2979280203580856 6.2424412667751366 5.9013641476631165 8.0178040266036898 7.8909494578838544 6.7498688995838156 4.8556977957487106 7.0355092287063599 4.8485116809606543 4.6210992187261573 6.7538394033908835 5.6683486253023139 5.41532963514328 4.7040164023637772
leaf_count=38 21 32 25 20 38 31 29 36 30 32 23 31 38 34 28 31 27 24 21 25 28 25 25 36 20 23 20 30 28 26 24 33 27 21 21 24 20 26 23 30 26 20 25 32 34 20 28 25 28 31 21 20 26 21 20 22 30 36 20 32 21 20 21 20 24 37 34 22 20 35 37 26 20 20 21 20 23 21 23 23 25 20 36 23 34 21 23 21 20 20 32 31 21 20 28 20 22 20 22 23 20 21 20 21 30 20 20 23 22 26 24 34 34 29 20 29 20 20 28 24 23 21
internal_value=0 0.0210615 0.0440429 -0.0253961 -0.052144 0.0571249 0.066315 -0.0378672 -0.036675 -0.021039 0.0232552 0.0199868 -0.00439019 -0.0843476 -0.0422723 -0.0559807 -0.0491471 -0.0322085 -0.0678124 -0.0351288 0.0782015 0.0878216 0.0431496 -0.0432632 -0.045405 0.00577507 0.0599658 -0.0627923 -0.0319456 -0.107309 -0.0456783 0.00580903 0.000101774 0.0155246 -0.105759 -0.074164 0.0413535 -0.00645106 0.0412727 0.0997304 0.0998253 -0.0145619 0.00479414 -0.056658 -0.0049544 0.0111331 0.0437036 0.0321022 -0.00744884 -0.0760335 0.0151214 0.0456735 -0.0383415 -0.00942778 0.0295112 0.01549 -0.064622 -0.0169661 -0.0965326 -0.119483 -0.0880883 0.0702815 -0.0601314 -0.126019 -0.00521812 0.029745 -0.0475696 0.03338 -0.0305412 -0.0314361 0.00178478 0.0546306 0.113595 0.106293 0.0586229 -0.086501 -0.0442022 -0.113148 -0.0703684 0.0769169 0.0506798 0.0632509 -0.134959 0.0728492 0.0945212 -0.0449808 0.00202829 -0.122328 -0.108049 -0.128073 0.112277 0.116473 0.0932354 0.0591062 0.0977504 0.0125255 0.0801576 -0.146387 0.120325 -0.119615 0.0851038 -0.0866692 -0.0641991 0.128948 0.100035 0.0643859 0.138247 0.139009 0.107686 0.0921103 -0.155972 0.14397 0.151638 0.131363 -0.169583 -0.162606 -0.166903 0.152485 0.163606 0.160274 0.162841 0.157469
internal_weight=0 543.793 391.222 62.0203 215.504 329.201 279.228 152.571 168.308 112.016 60.4052 42.0314 33.2946 40.5552 161.064 117.794 110.243 81.2122 41.4325 26.5335 218.823 173.521 36.7509 22.3845 69.1851 49.9734 20.5878 53.8184 31.3276 47.1959 69.9847 18.8236 46.3671 39.7688 22.4908 16.5959 45.302 24.4288 12.9319 14.038 136.77 38.8637 31.2383 13.9889 43.2705 36.4291 12.0271 11.9227 29.8974 18.6202 30.3351 20.1117 24.0772 17.6817 12.5127 15.3667 51.1611 16.0977 29.0305 22.4244 13.9901 30.7096 11.4969 14.899 31.5867 17.3026 14.2841 16.5821 11.0448 23.1441 14.5778 17.2494 14.1275 124.847 10.0174 35.0633 13.5516 21.5118 10.7616 11.1098 12.1298 10.7179 18.1707 10.5776 14.9669 10.2235 10.5046 40.8482 31.7078 21.7676 112.717 105.181 36.7405 21.0474 11.5037 9.54367 15.2706 17.5263 10.0832 10.7588 9.87144 9.89905 9.94019 68.4408 16.6561 9.65218 51.7847 15.6931 10.4645 10.997 10.7502 47.1256 39.7848 14.7677 12.6889 11.8686 9.75156 9.33565 25.0172 18.2633 10.2339 12.595
internal_count=3140 2256 1633 254 884 1379 1173 623 689 458 250 172 136 165 659 482 451 332 169 108 923 735 155 91 283 206 85 220 128 195 286 77 191 164 92 68 188 100 53 59 580 160 129 57 177 149 49 50 123 76 126 84 98 72 51 63 209 66 119 92 57 130 47 61 129 71 58 70 45 95 60 72 60 530 41 143 55 88 44 46 51 44 74 45 62 42 43 169 131 90 479 447 155 88 48 40 64 72 42 44 41 41 41 292 71 41 221 67 44 46 44 201 170 63 52 49 40 40 107 79 44 55
is_linear=0
shrinkage=0.1


Tree=5
num_leaves=123
num_cat=0
split_feature=27 26 24 22 5 22 27 24 22 13 24 22 22 0 9 10 24 22 5 26 5 18 23 14 0 14 15 24 14 23 10 24 13 24 24 17 12 15 26 2 0 6 1 1 10 22 27 0 5 5 9 2 15 1 9 0 13 17 9 7 10 22 22 17 2 0 14 6 13 14 22 9 23 15 10 10 0 9 12 10 13 18 14 2 13 19 0 22 22 27 12 9 17 14 5 6 9 2 27 18 13 10 27 14 26 24 10 26 19 0 13 14 0 19 24 26 18 5 5 5 13 1
split_gain=38.8169 47.6798 30.8246 32.9125 29.1208 13.4209 11.9341 11.6645 8.25597 8.20994 7.71364 7.37479 9.29048 6.89802 6.72528 7.27058 6.58739 6.30533 8.0373 6.29007 7.30165 7.04292 8.24392 6.08266 5.88851 5.81612 5.88422 7.42002 9.58403 7.07717 5.57204 5.50471 5.40919 5.18411 7.33315 5.1122 5.05658 4.72874 4.66062 4.60922 4.4603 4.80079 4.43756 4.22734 5.06555 4.43585 6.99807 6.00403 5.32376 6.06055 5.04613 5.77207 6.836 6.73665 5.82386 6.6885 4.81765 4.69583 5.05679 4.45877 4.27416 4.13183 3.95102 4.58861 6.5322 3.97023 3.86739 5.57129 3.78033 3.7662 3.68429 3.61845 3.59068 3.54935 4.42599 3.39695 3.34124 3.31829 3.29574 3.97431 3.94708 5.0707 4.25915 3.27497 3.25086 6.55144 3.23721 5.78751 4.09132 3.06104 2.95071 2.87867 2.86364 2.80202 2.77612 2.76378 2.67818 2.54452 2.41489 2.1661 2.11763 2.09215 2.00729 1.97752 1.37719 1.61579 1.36389 1.58933 1.27967 1.5135 1.21447 1.10058 0.952019 0.805923 2.17451 0.70779 0.689461 0.271589 0.220915 0.0386747 0.0227152 0.0142306
threshold=0.90250000000000019 0.86350000000000005 1.0265000000000002 1.0265000000000002 0.77950000000000019 1.0375000000000003 0.82450000000000012 0.82250000000000012 0.73150000000000015 0.72150000000000014 0.87250000000000016 0.76950000000000018 0.79550000000000021 1.3045000000000002 0.99050000000000005 -0.18749999999999997 0.84050000000000014 0.8135 1.2725000000000002 0.79050000000000009 1.3365000000000002 -0.55599999999999994 0.98950000000000016 -0.79249999999999987 0.76450000000000007 1.2275000000000003 0.85850000000000015 0.64150000000000007 -0.40849999999999992 1.1175000000000004 -1.4834999999999998 0.73250000000000004 0.96150000000000013 0.96250000000000002 0.81450000000000011 0.82850000000000013 1.6610000000000003 -0.23249999999999998 0.93950000000000011 -1.0084999999999997 1.2435000000000003 0.5525000000000001 0.40650000000000003 -1.4269999999999998 -0.45049999999999996 1.0485000000000002 1.0655000000000003 2.4805000000000006 0.9235000000000001 1.1635000000000002 0.65550000000000008 -1.0364999999999998 0.71750000000000014 -0.88749999999999984 1.1155000000000002 0.95250000000000001 0.92650000000000021 1.7350000000000001 1.3475000000000004 0.68450000000000022 -0.61349999999999982 0.89650000000000019 0.9235000000000001 1.0565000000000002 -0.42849999999999994 0.51450000000000007 0.50400000000000011 -0.24549999999999997 1.0575000000000003 1.4745000000000001 0.94950000000000012 1.1315000000000002 0.98750000000000016 0.42050000000000004 -1.0000000180025095e-35 0.057500000000000009 0.96850000000000003 1.1275000000000002 1.6610000000000003 -1.1014999999999999 1.1545000000000003 0.64350000000000007 -0.46599999999999997 0.39150000000000007 1.0675000000000001 -0.40949999999999992 0.97550000000000014 0.89650000000000019 0.98650000000000004 1.1665000000000003 1.6610000000000003 0.94750000000000012 0.52850000000000008 0.97450000000000003 1.3045000000000002 -0.018499999999999996 1.0505000000000002 0.27900000000000008 0.76450000000000007 -0.17149999999999996 1.0475000000000001 0.14850000000000002 1.0515000000000001 -0.14349999999999996 0.65150000000000008 0.71850000000000003 0.30850000000000005 1.1475000000000002 -0.75949999999999995 0.76850000000000007 1.1705000000000003 0.14850000000000002 1.1415000000000002 0.56150000000000022 0.85750000000000004 1.0565000000000002 0.070500000000000021 1.2335000000000003 1.0405000000000002 0.9425 0.84450000000000014 -0.26249999999999996
decision_type=2 2 2 2 2 2 2 2 2 2 2 2 2 2 2 2 2 2 2 2 2 2 2 2 2 2 2 2 2 2 2 2 2 2 2 2 2 2 2 2 2 2 2 2 2 2 2 2 2 2 2 2 2 2 2 2 2 2 2 2 2 2 2 2 2 2 2 2 2 2 2 2 2 2 2 2 2 2 2 2 2 2 2 2 2 2 2 2 2 2 2 2 2 2 2 2 2 2 2 2 2 2 2 2 2 2 2 2 2 2 2 2 2 2 2 2 2 2 2 2 2 2
left_child=1 4 3 78 8 17 14 40 9 -1 100 13 -13 111 19 32 -8 38 24 20 21 -6 -23 -12 31 26 29 -28 -29 30 -10 -19 -16 34 61 -30 -36 112 95 -25 41 89 91 44 -14 47 73 50 68 56 72 96 53 -53 60 -56 -50 58 76 -60 -55 -26 65 64 -64 -33 67 -21 -48 -27 -39 -54 -45 74 -47 -24 -51 -41 79 -2 81 82 -81 -31 86 -86 88 -88 104 -5 -62 -40 -7 108 115 97 -52 -3 117 -97 -9 -20 -84 -67 -32 -106 110 -108 109 -94 120 -4 -35 118 -115 -82 -107 -17 121 -101 -80 -110
right_child=2 5 11 7 6 92 16 10 25 -11 23 12 43 -15 15 98 -18 18 101 66 -22 22 75 39 33 69 27 28 35 83 84 62 -34 37 36 -37 -38 70 42 77 -42 -43 -44 45 -46 46 48 -49 49 57 51 52 71 54 55 -57 -58 -59 59 -61 90 -63 63 -65 -66 103 -68 -69 -70 -71 -72 -73 -74 -75 -76 -77 -78 -79 106 80 94 -83 102 -85 85 -87 87 -89 -90 -91 -92 -93 93 -95 -96 99 -98 -99 -100 119 -102 -103 -104 -105 105 116 107 -109 113 -111 -112 -113 -114 114 -116 -117 -118 -119 -120 -121 -122 -123
leaf_value=0.094670437017534276 -0.1493923107310445 0.10067929381087613 0.14557136638512208 0.12980713900170288 0.054211601863590697 0.046959171753919726 0.0069304604190594176 -0.16934032291252982 0.0064657140373420453 -0.058570766299333159 -0.11566959639605684 -0.13013651478822522 0.015879837575645206 -0.013556022169296411 -0.039739039858936814 0.16859446265790318 -0.14690734948047032 0.076415366304791343 0.069201755504865653 0.095148270195262841 0.11103561999516097 0.017122063944901521 -0.15973231090656506 0.081285920986600008 0.14102654669313827 0.081822837281070815 0.090887160249142701 0.038948666728299525 -0.16652110047881938 -0.052096288214893309 -0.18267254588550341 0.0088372144496977039 0.09016523191710854 0.097148926651537515 -0.089897279194665947 -0.041670135109661527 0.038040484726992341 -0.0035356135694243479 0.032450292382598028 -0.061503410900030309 -0.02991311470668977 -0.0076361347756004425 -0.038697071891960214 -0.012124117480815245 -0.10747413138953206 0.16853914784388602 0.003802704246775443 -0.11764127802273593 -0.15006117626007293 -0.07226175577822791 -0.13347644554022398 0.058452447234315322 0.096036248567684251 -0.0076510396056513278 0.07283490461031987 -0.08051028745003895 -0.02024828668794296 -0.077664688729909059 0.1223573896201564 -0.0014584799066857186 -0.067506153065978888 0.019153095479364397 -0.047224133638820755 -0.075501816761678608 0.10121584212077746 -0.054761923749631472 0.12517493615972455 -0.019657883557404734 0.11526216079390275 -0.036015197289107202 0.10070912481813854 -0.001663864326276942 0.088080167109828841 0.012244010697852274 0.047065659941616433 -0.053090064210895876 0.029564342184240391 0.034238583153550987 -0.17068231695948805 -0.00264900094074603 -0.17389119664625713 0.025984674970286305 -0.15903605422455525 0.062573923740079113 -0.13443484816710818 0.001020518253014815 0.0017837666752840914 -0.12261556564063954 -0.06005041799188994 0.031963204841882864 -0.16141305029341854 0.12733238125453239 0.050629186495399686 0.04264779302527371 -0.052810407609776372 0.073323527507971512 -0.037921161782244112 0.0089746212446124209 0.069602700179745236 0.16342899017664314 -0.075754655203680618 0.16283449103344122 -0.069575117987197482 -0.13841411939065426 -0.086216467783546635 -0.17231154010562882 -0.13443594518996058 -0.062157587781293322 0.16221795068240807 0.13234612015024591 -0.10773484605893656 0.080062482584007486 0.1607174133507919 0.069512337106087979 0.15792000115810359 -0.11903366112888458 -0.12298910452111943 0.13652657712657421 0.13163781210395087 0.15066818533939463 -0.16183824563362359 0.15479017261853817
leaf_weight=8.2836053818464261 8.8376627862453443 7.8785918802022952 5.4220814406871813 9.2923827767372185 8.6856612116098386 7.6373122334480277 5.7922422587871534 4.836305618286131 6.3031035214662472 6.0492694228887549 5.1214528530836132 5.828951656818389 5.7789634466171265 7.0998106449842444 6.2325466275215167 6.1942751705646497 5.3585174232721329 6.176203802227973 4.9349011927843076 8.3555555939674413 4.8012125194072715 9.4775278270244652 6.128208324313162 5.8473084121942547 4.6015482693910617 5.0962403714656812 5.1204761713743236 8.6949584633112007 5.8042858242988533 4.8252367973327619 6.5981274694204464 5.5434093922376659 6.599652498960495 4.5772889852523821 8.1900735497474653 7.5399568229913712 4.9603280127048484 8.4287903457880002 9.1869087815284747 9.0698722153902036 6.7932944297790518 6.5044340789318076 5.7610175758600226 6.0709451287984839 7.8527130931615812 5.8743437528610238 5.8900215327739698 5.1137897968292227 4.9232495576143247 5.7992538511753136 5.3375273048877627 7.498056024312965 8.5131687521934492 5.5457187891006425 6.7572329640388471 4.9120679795742035 6.8181791007518768 5.0932838171720496 7.4251833409070951 4.7812983244657516 7.0595704019069903 7.034215971827507 5.0349429696798325 4.7629808932542792 7.2093886882066744 5.9587116390466699 7.063076749444007 8.5545332133769989 6.2952946722507477 5.7980484962463379 5.6717327535152426 6.8338410705327979 8.7017948329448682 5.9855801910161963 6.1290171295404443 5.8272311687469482 7.252457782626152 6.0245531499385825 7.6729559600353294 4.8492535203695271 4.7781494557857496 6.5387199223041526 5.3044699579477346 5.147640198469162 5.8490163832902899 9.1664112955331785 6.7463757395744315 8.3919508606195432 7.7142027616500846 4.8748176991939536 6.360974058508873 4.9047265350818625 4.5483384132385236 4.8591561913490287 4.7048589736223212 4.6004874706268319 6.5112435966730118 4.9121121764183044 4.7886097729206076 4.6524473577737773 4.8351560235023499 4.6208976656198502 4.7576013952493668 5.375154256820676 5.8518170267343548 6.4818093031644803 8.2977664023637754 4.8033706545829764 4.8990829437971071 4.5178010761737823 4.7284211516380301 4.8663443624973297 4.8545683920383453 5.4457260817289335 5.6881830245256424 4.6320056319236755 5.0361782759428024 4.60399030148983 4.4383419305086127 4.8518850654363632 4.6726248562335968 5.4472345709800782
leaf_count=34 37 34 23 39 36 32 24 20 26 25 21 24 24 29 26 26 22 26 21 36 20 39 25 24 20 21 21 36 24 20 27 23 28 20 34 31 21 36 39 37 28 27 24 25 32 25 24 21 20 24 22 31 35 23 28 20 28 21 31 20 29 30 21 20 31 25 30 36 26 24 24 28 36 25 26 24 30 25 32 20 20 27 22 21 24 38 28 35 32 20 26 21 20 21 20 20 27 21 20 20 20 20 20 22 24 27 35 21 21 20 20 20 21 24 25 20 21 20 20 22 20 24
internal_value=0 0.0201914 -0.025531 -0.0617129 -0.0106345 0.0569201 0.0304225 -0.00861969 -0.0416125 0.0299941 -0.0462832 0.000121248 -0.00598554 0.0622643 0.042864 0.0828166 -0.0669966 0.0417808 0.0273577 0.0235847 -0.00349363 -0.0217507 -0.0525343 -0.0179812 0.0179379 -0.0504475 -0.0576457 -0.0175512 -0.0427452 -0.0715867 -0.0831022 -0.0104102 0.0270713 0.0414413 0.00952529 -0.095976 -0.0416392 0.0750577 0.0719964 0.00590915 0.0403844 0.0634862 0.0352454 -0.00175639 -0.0551799 0.00286793 0.0210927 -0.0125875 0.003178 -0.0136724 -0.00588079 -0.0178161 -0.00382506 -0.026506 -0.0472996 0.00828588 -0.0746796 0.00992816 0.0275911 0.0738585 -0.0814994 0.0673499 -0.0262361 0.00778017 0.0401764 -0.0605145 0.0630277 0.0370697 0.061386 0.0191083 0.0383953 0.0525315 0.0469006 0.0751468 0.106514 -0.107754 -0.0156799 -0.0232904 -0.106706 -0.089376 -0.0744624 -0.0474382 -0.0796347 0.00709235 -0.0922321 -0.0517439 -0.105217 -0.0671772 -0.123393 0.0961398 -0.112015 0.0654749 0.103052 0.113804 -0.11553 0.0991239 -0.080966 0.0654612 0.12871 0.12965 -0.122553 0.11448 -0.116737 -0.0944345 -0.14378 -0.129006 -0.132206 -0.107936 0.123687 0.09135 -0.150829 0.114586 0.129868 0.134999 0.114679 -0.146888 -0.150746 0.154922 0.150301 0.156915 -0.167335 0.158307
internal_weight=0 421.126 332.109 137.777 228.962 192.164 98.4628 63.1996 130.499 14.3329 35.7346 194.332 176.944 17.3882 87.3121 28.4191 11.1508 144.683 97.9351 58.893 34.9198 30.1186 21.433 26.0632 88.3793 116.166 105.272 27.1597 22.0392 78.1119 68.139 40.0608 12.8322 48.3185 24.7862 13.3442 13.1504 23.5324 46.7482 20.9417 27.4649 20.6716 19.8527 171.115 13.6317 157.483 72.2672 85.2159 54.2782 42.0929 80.1021 65.3294 53.4806 38.1336 30.6356 11.6693 11.7414 30.3515 25.2582 12.2065 18.9663 11.6358 33.8846 17.0073 12.2443 16.8773 23.9732 16.9101 12.1853 10.8943 14.1005 15.347 14.7727 17.9889 12.0034 11.9554 13.0517 15.0944 74.5779 44.4027 35.5651 21.45 14.9113 9.97288 61.8359 15.0154 46.8205 15.1383 31.6821 14.1672 13.4205 14.0916 47.4812 39.8439 14.115 26.8955 11.8488 12.7907 15.5869 14.1048 9.67146 9.5558 10.0621 11.3339 23.9679 17.3698 30.1751 13.1011 34.9847 9.06614 17.074 10.2884 9.43186 25.9186 11.1339 9.41016 11.518 10.7983 14.7847 9.50433 12.3456 10.3463
internal_count=3152 1774 1378 575 951 823 412 261 539 59 147 803 731 72 366 120 46 616 415 246 144 124 88 107 374 480 435 112 91 323 282 168 54 206 105 55 55 101 201 86 114 86 84 707 56 651 300 351 224 174 330 269 220 157 126 48 48 126 105 51 78 50 142 72 52 70 102 72 50 45 60 63 61 76 51 49 54 62 314 186 149 89 62 41 256 62 194 63 131 59 55 60 207 175 60 117 49 55 66 62 40 41 42 47 99 72 128 56 154 40 72 43 41 114 49 40 48 46 65 42 52 45
is_linear=0
shrinkage=0.1


Tree=6
num_leaves=121
num_cat=0
split_feature=25 25 26 25 9 5 3 3 25 24 5 3 23 15 24 24 19 13 26 25 17 9 14 18 24 13 1 5 2 5 14 0 1 19 3 25 10 5 9 10 25 7 17 0 10 16 15 2 6 3 10 7 15 19 19 18 18 19 9 5 18 19 14 14 1 10 6 10 6 1 10 0 24 7 15 13 6 18 6 5 6 19 17 19 10 3 3 25 23 13 18 10 14 26 3 3 23 15 9 25 6 19 18 17 9 10 0 18 10 5 7 6 1 7 24 23 10 26 5 1
split_gain=62.2403 55.9569 23.3489 14.0236 13.7159 13.4171 12.8919 12.2904 11.0323 10.2276 9.77578 8.54822 9.16307 8.19334 8.07574 8.05173 8.54757 7.53641 8.81458 7.19565 10.8716 6.97743 6.86895 6.83598 6.67102 6.60206 7.45725 6.00567 5.9509 5.82304 7.30046 6.61126 5.97411 5.79118 5.54453 5.52838 5.50925 5.45253 5.76129 5.31666 5.19665 4.82055 6.85203 5.88859 5.52076 4.71087 4.70535 4.67845 4.62983 5.39353 5.78264 4.54478 4.45356 4.45299 9.334 4.3685 4.31078 4.15693 4.27171 4.06298 4.04457 3.99236 3.97396 5.42481 5.38123 3.89377 3.86334 4.4535 3.8272 3.61322 3.60556 3.50972 3.40861 3.40141 3.25202 3.12308 4.07138 3.14979 3.02437 3.21208 4.52909 3.00014 3.9653 3.37207 3.6304 3.79229 4.40494 2.98541 2.9676 2.93523 3.05836 3.20153 2.9191 2.89489 2.85781 2.72641 2.76232 2.18733 2.08637 1.99397 1.73594 2.80118 1.60749 1.58463 1.5838 1.54968 1.51238 0.944054 0.87079 0.781237 0.77127 0.610604 0.544816 0.433139 0.287702 0.169406 0.15158 0.0746929 0.0198423 0.0176117
threshold=1.0975000000000004 0.6695000000000001 0.80850000000000011 0.98950000000000016 1.1275000000000002 0.82050000000000012 1.8795000000000002 2.2815000000000007 1.8525000000000003 0.83150000000000002 1.9180000000000001 0.46150000000000008 0.98650000000000004 -0.48849999999999993 1.4355000000000002 1.2895000000000001 -0.77349999999999997 0.50750000000000017 1.0805000000000002 0.58650000000000013 1.2495000000000003 0.90350000000000008 0.99450000000000005 -1.4429999999999998 0.64550000000000007 0.9405 0.18750000000000003 1.1275000000000002 -0.85549999999999982 0.88150000000000006 -0.61349999999999982 1.7460000000000002 0.51750000000000018 1.2015000000000002 0.63450000000000017 0.70450000000000002 -0.92049999999999998 0.9275000000000001 0.99050000000000005 -1.5824999999999998 0.7985000000000001 -0.23649999999999996 0.53850000000000009 0.65650000000000019 -0.34449999999999992 1.0000000180025095e-35 -0.36299999999999993 0.32000000000000006 1.1100000000000001 0.6585000000000002 -0.64849999999999997 -0.42349999999999993 0.018500000000000003 0.28550000000000003 -0.66549999999999987 -1.8059999999999998 1.2925000000000002 -1.4849999999999997 0.48850000000000005 1.3855000000000002 0.048000000000000008 0.48250000000000004 0.5525000000000001 0.97450000000000003 0.35850000000000004 -1.4304999999999997 -0.065499999999999989 -0.38849999999999996 1.2175000000000002 -1.4989999999999999 0.32950000000000007 1.4035000000000002 0.96550000000000014 -0.48349999999999993 1.1185000000000003 0.69450000000000001 -0.56649999999999989 -0.48549999999999993 1.2175000000000002 0.66750000000000009 0.70850000000000002 0.83800000000000008 0.83850000000000013 0.28550000000000003 0.87100000000000011 1.1755000000000002 0.74450000000000005 0.88050000000000017 0.98950000000000016 0.77350000000000019 0.86550000000000005 0.28750000000000003 0.6645000000000002 1.0095000000000003 0.96550000000000014 0.55150000000000021 0.99550000000000016 0.18850000000000003 0.76650000000000007 0.75550000000000017 0.38950000000000007 -0.42199999999999993 0.11700000000000001 0.84250000000000014 0.63050000000000017 -0.27549999999999997 0.82150000000000001 -0.18249999999999997 -0.077499999999999986 0.70450000000000002 0.14550000000000002 -1.2539999999999998 -0.53849999999999987 -0.38549999999999995 1.0795000000000001 0.98450000000000004 0.52450000000000008 1.0035000000000001 1.1005000000000003 -0.21449999999999997
decision_type=2 2 2 2 2 2 2 2 2 2 2 2 2 2 2 2 2 2 2 2 2 2 2 2 2 2 2 2 2 2 2 2 2 2 2 2 2 2 2 2 2 2 2 2 2 2 2 2 2 2 2 2 2 2 2 2 2 2 2 2 2 2 2 2 2 2 2 2 2 2 2 2 2 2 2 2 2 2 2 2 2 2 2 2 2 2 2 2 2 2 2 2 2 2 2 2 2 2 2 2 2 2 2 2 2 2 2 2 2 2 2 2 2 2 2 2 2 2 2 2
left_child=1 4 5 7 9 35 8 29 10 11 15 12 -1 -7 74 23 -17 -5 21 20 28 61 27 55 -25 81 98 -18 97 30 34 40 93 53 112 -3 39 -20 -39 -26 66 42 -38 102 -45 -15 -36 -46 49 -6 -51 70 -28 54 104 -2 57 -32 -59 78 -48 -19 71 109 -65 -42 67 -31 69 -67 -37 75 -41 -52 92 -60 -77 -78 79 -43 89 83 -83 84 85 86 -11 -70 -21 -81 91 -91 114 -33 -23 -53 103 -13 -27 107 111 -102 -44 -97 -30 -8 -56 -68 -87 -64 -79 -71 -4 -103 116 -113 -10 119 -119 -117
right_child=6 2 3 17 48 13 105 -9 14 25 -12 19 -14 45 -16 16 22 18 37 88 -22 94 -24 24 36 26 52 -29 33 31 56 32 -34 -35 46 51 41 38 -40 72 65 59 43 44 47 -47 60 -49 -50 50 73 95 -54 -55 106 -57 -58 58 62 -61 -62 -63 63 64 -66 68 99 -69 87 100 -72 -73 -74 -75 -76 76 77 110 -80 80 -82 82 -84 -85 -86 108 -88 -89 -90 90 -92 -93 -94 -95 -96 96 -98 -99 -100 -101 101 113 -104 -105 -106 -107 -108 -109 -110 -111 -112 115 -114 -115 -116 117 -118 118 -120 -121
leaf_value=-0.045320567473798486 -0.035936893224265042 0.050197550075962577 0.099032268837088613 -0.1029667604954434 0.11155130428506554 0.12486592053243206 -0.17164404335375461 -0.070322885921792408 -0.15682850935340231 -0.12949337457386648 0.10117796282572555 -0.17295884821319238 0.1226992038368302 -0.041298645666493924 -0.0045247171127507663 0.10101439018320846 -0.040336051810248262 -0.03615557879159275 -0.093980684667536368 0.090203665998168689 0.073675919619422853 0.14172542637276483 -0.1186377168258352 0.050984042206433849 -0.094618141790624777 -0.0078268948095947914 -0.13754462347206101 0.080759580114414836 0.057607350103976024 0.077228116356568774 0.16388032018441134 0.1027071800164589 -0.073486027314856109 -0.13574052741040485 -0.081396879838127753 -0.051035751254781297 -0.14756433985864831 0.078455536416694699 -0.051718681603400846 -0.017734264408398256 0.041442936601957442 -0.13530968581893665 -0.12667098435339058 -0.075753108409967351 0.10675121847013419 0.072954989811690574 0.063565249636620344 -0.010365685714838514 -0.054699332362655555 -0.071132375081464388 0.11736469121754103 -0.032874397174357493 -0.0078636782705178467 0.03593291229314953 -0.16086137770621534 0.095695550840205715 -0.0011980505698386738 0.14183253713360969 -0.0049374485691717485 -0.17807629058425981 -0.041992519084039392 0.075297229017546638 0.11463244796841586 0.10567124142103393 -0.02504434768606352 0.045801147967442862 0.079420075884445385 -0.036814312233251267 0.10635185926928861 0.10920308704419542 0.062004200295236928 -0.028301878862029686 0.090016106377800886 0.0086921513355783069 -0.051432801724859901 0.010646666018655805 0.03487496791667391 0.16384735312521648 -0.15525135910742821 -0.14455797915603338 0.032252748655785812 -0.10442969668118739 0.010981999404165655 -0.15615520248307338 -0.015018519370459286 -0.17508809120040056 -0.020822218727421783 -0.002919794954567294 -0.0072616282126575227 0.010220726313037321 -0.12230604549637472 -0.091097585200979284 -0.073906389046753951 0.0012314037334150818 0.050211906062894107 -0.16630883112737516 -0.056781670703590664 -0.081324601172446109 0.082140299074682704 0.043854096625091155 0.059799979163080212 0.11875574633686695 -0.045803775192398859 -0.089418346293249962 -0.023249923432641425 -0.10737981072446784 -0.081639587449719372 0.13899805660573436 -0.11681044101008396 0.16749229240453792 0.10715600719078069 0.13127510769278389 0.050455403909306973 0.16147981051699128 -0.17641675112492994 0.15124497911357027 -0.13293680753049927 0.16320414597093585 0.15474171640095272 0.1441561366010356
leaf_weight=5.3385014832019797 4.8338464796543121 5.5200502574443808 4.5562471002340317 5.6054220646619788 9.0949804037809425 8.8847387284040469 6.8379387110471717 6.7398657053709021 6.574524283409124 6.7409225851297441 5.6174381524324408 5.6882816106080991 8.2800030559301359 9.13484378159046 8.5444575846195203 8.0190587639808673 9.4886642396450096 8.591946020722391 8.0188545584678668 5.7258077859878522 6.4559590369462958 8.6015012115240079 5.3109300136566153 5.7590464800596228 5.0369425266981152 4.8166835606098193 5.8403448760509473 7.2054964303970328 4.8803268373012489 6.443572998046875 4.8239296674728385 6.7770080864429492 4.6585819572210303 5.7716811150312415 7.6316769719123885 6.7339931130409223 5.3151868581771771 6.458808556199072 7.1789273470640182 6.9557963162660581 8.6130769252777082 6.4064218699932161 5.0340221077203768 5.6237345635890987 6.1487324088811857 5.965490221977233 7.9647552073001826 7.6600722372531891 5.1100981831550589 5.2484557926654878 5.0253071039915138 9.1651436835527438 4.8452338576316833 8.2471011132001859 4.851039946079263 5.2697425335645658 8.475298345088957 6.9549756050109854 7.0609520375728634 4.9800811111927024 6.6694251447916031 5.1348075717687598 5.5601834058761614 6.8615980297327024 5.8213071078062057 5.4986480772495261 4.6186416447162655 7.3078501373529452 5.4246500432491285 4.4066413342952648 4.856777235865593 6.5764541476964942 5.0800702720880508 6.7472586035728348 6.158071130514144 7.2289349883794793 4.6084657460451117 4.7914814054965973 4.9411233812570563 4.8115758299827638 4.7396045029163352 5.5611305087804777 6.4065297693014145 8.3698963373899442 6.0359599441289893 5.5255929529666901 8.3509065955877286 4.6379783600568771 6.8748087733983994 7.6996928751468676 5.0914479792118064 5.2420502007007599 5.9371107071638098 4.8042364567518234 5.6564989686012259 6.09825047850609 8.641495078802107 4.8057100027799606 5.5451172143220901 6.5349123030900946 7.6080099791288402 4.5175248831510553 4.8038619011640549 4.7821537256240845 4.8101545125246048 8.3155653923749906 4.7883424907922745 6.2705826312303534 4.7836046516895276 5.6240239441394806 4.8076992779970169 4.5495449304580786 4.6807355433702487 4.9984439015388462 4.8432122170925131 6.3933912217616999 4.4548929631710052 4.7094382643699628 6.7308339327573776 7.7567395567894035
leaf_count=22 20 23 20 23 39 39 29 28 29 28 24 24 35 38 35 33 39 36 33 24 27 37 22 24 21 20 24 30 20 28 21 30 20 24 32 28 22 27 30 29 37 27 21 24 26 25 34 32 21 22 21 38 20 34 20 22 36 31 30 21 28 22 24 29 25 24 20 31 24 20 20 28 21 28 26 31 20 21 21 20 20 23 27 35 25 23 35 20 29 32 21 22 25 20 24 26 36 20 23 28 33 20 20 20 20 36 20 28 20 24 21 21 20 22 20 29 20 20 30 37
internal_value=0 0.0176249 0.040113 0.0523823 -0.0279237 -0.0119208 -0.0477285 0.0628113 -0.0404111 -0.0405265 -0.028197 -0.0149966 0.0568349 0.0486701 -0.0896108 -0.0333346 0.0126279 0.00694557 0.0193567 -0.030549 -0.047478 0.0564259 -0.0195818 -0.0457186 -0.0535396 -0.0673521 -0.0201275 0.011931 -0.0653183 0.0666466 0.0499992 0.0815974 0.0221445 -0.0446514 0.00928186 -0.0436532 -0.0598382 -0.0285443 0.00993161 -0.00835562 0.0906191 -0.0710354 -0.0431123 -0.0241449 0.00776879 0.00383803 -0.0177392 0.0417837 0.0323494 0.0493821 0.0161628 -0.0565154 -0.0787425 -0.0255871 -0.0518346 0.0327188 0.0661961 0.0742728 0.067713 -0.093028 0.015458 0.0055359 0.058967 0.0904442 0.0456743 0.104747 0.0562487 0.0166231 0.112857 0.122867 -0.00366963 0.0375475 0.0277448 0.0550808 -0.115606 0.0527437 0.0717432 0.10283 -0.0821488 -0.0715221 -0.0567076 -0.0865498 -0.0426475 -0.0997487 -0.0847308 -0.101296 -0.0693613 0.0559873 0.0370273 -0.0751642 -0.0566487 -0.0308182 -0.133725 0.0606121 0.10542 -0.0778673 -0.0989906 -0.130995 0.040319 0.0875219 0.131068 0.105033 -0.0871833 -0.132514 0.0174715 -0.136379 -0.121508 0.113728 -0.148046 0.141213 0.135454 0.143972 0.0744165 0.141197 -0.1561 0.149056 -0.147178 0.152217 0.158225 0.147359
internal_weight=0 546.294 365.728 295.945 180.566 69.7829 198.74 240.698 183.587 149.34 147.075 76.5177 13.6185 23.9851 36.5123 141.457 30.0241 55.2468 49.6413 62.8992 50.2986 27.9848 22.0051 111.433 101.329 72.8219 21.0474 16.6942 43.8426 233.958 110.698 123.26 16.2398 33.3486 31.5028 45.7979 95.5704 21.6566 13.6377 17.0728 107.02 78.4976 34.5856 29.2704 19.4325 15.1003 22.2659 13.8088 31.2261 26.116 17.021 40.2778 10.6856 27.577 19.3299 10.1036 79.1953 70.72 65.8961 43.912 14.6342 13.7268 58.9411 23.8671 12.6829 75.8449 31.1756 13.7514 67.2318 57.1692 11.5908 35.074 12.0359 11.7726 27.9678 28.4975 21.4366 14.2076 38.9319 33.9908 27.5844 51.7745 11.9677 39.8069 31.437 25.401 15.0918 10.0626 12.6006 22.8448 18.0332 12.9417 21.8097 11.5812 14.258 28.687 19.5219 10.494 10.3618 17.4241 51.6706 17.124 9.83788 10.8804 9.69048 15.1535 9.63938 10.8892 10.3092 11.1842 9.59918 34.5466 9.23698 9.51597 15.8726 30.1399 11.0294 25.5904 11.4403 14.1501
internal_count=3157 2323 1570 1277 753 293 834 1045 769 622 614 319 57 102 155 590 124 232 209 262 209 119 91 466 424 303 87 69 182 1017 475 542 70 138 134 191 400 90 57 71 472 329 145 123 82 63 94 58 131 110 71 168 44 114 80 42 341 305 284 184 62 58 253 102 54 337 135 59 300 256 48 151 50 49 120 123 93 62 163 142 115 216 50 166 131 106 63 44 53 95 75 54 94 50 61 120 82 44 43 76 232 75 41 46 40 65 40 48 43 48 42 157 40 42 69 137 49 116 50 66
is_linear=0
shrinkage=0.1


Tree=7
num_leaves=126
num_cat=0
split_feature=25 25 25 26 27 5 9 27 5 17 21 3 26 27 0 26 9 25 9 10 17 8 22 0 26 27 5 8 15 0 17 27 25 5 22 9 22 19 27 27 0 13 10 13 6 5 3 21 21 21 25 25 13 17 13 26 7 1 22 0 21 17 3 27 0 21 25 8 7 7 19 3 26 2 2 9 22 19 26 5 3 2 2 9 25 15 17 6 2 10 17 17 26 6 10 25 26 13 13 1 25 6 21 16 6 10 2 17 19 19 10 0 16 25 19 5 3 6 21 5 5 22 0 7 13
split_gain=48.9344 37.13 34.7907 25.4304 16.085 14.3429 8.59019 13.0282 9.41058 8.36894 8.0977 8.00715 7.5749 9.39344 8.50178 7.54601 7.33039 7.2649 6.73072 6.601 6.55929 6.19486 9.54937 6.74199 6.07421 15.0636 5.89353 6.64296 7.42559 5.83997 5.80013 6.58136 5.68871 5.65393 5.62225 5.61989 8.76609 5.80293 5.55642 6.29899 5.73566 8.71208 8.44928 5.52418 5.3503 6.14202 5.90302 5.2823 4.86494 4.83688 4.7751 4.68047 4.57026 4.47533 4.43307 4.91444 5.44626 10.4301 4.3926 4.30002 4.20423 4.1089 4.08799 4.45457 5.79447 3.98247 7.3732 3.96329 4.39503 4.08247 3.77489 3.46527 3.46288 3.33235 3.3223 3.3102 3.26471 3.15019 3.14611 3.13909 6.01747 3.05211 2.97649 3.00405 3.43764 3.72227 4.60043 4.2588 2.97511 3.51053 2.77983 2.71818 2.53103 2.39162 2.32848 3.73396 2.31987 2.27271 3.9954 3.7688 2.6803 2.27093 2.14612 1.96169 1.87938 1.70875 1.64568 1.61189 1.48132 1.44945 1.42552 1.27595 1.14671 0.92178 0.739624 0.660916 0.634444 0.166303 0.105773 0.0612503 0.0321196 0.0371992 0.0153972 0.00830847 0.00733776
threshold=1.5165000000000002 0.59250000000000014 0.98450000000000004 0.77650000000000008 0.90450000000000019 0.82050000000000012 1.0665000000000002 1.1835000000000002 0.81250000000000011 2.1615000000000006 1.0775000000000003 1.8535000000000001 0.86050000000000015 0.90250000000000019 0.62350000000000005 0.97050000000000003 1.5465000000000002 0.67850000000000021 0.73450000000000004 -1.2954999999999999 1.5415000000000003 1.6300000000000001 1.2065000000000003 1.1145000000000003 0.87150000000000005 0.7965000000000001 1.3445000000000003 1.0000000180025095e-35 0.018500000000000003 1.6975000000000002 1.0625000000000002 0.73850000000000005 0.87650000000000017 1.2255000000000003 0.96450000000000002 0.92250000000000021 0.96450000000000002 -0.040499999999999994 0.84250000000000014 0.82050000000000012 0.99550000000000016 0.52750000000000019 0.56850000000000012 1.4065000000000001 0.73650000000000004 0.70750000000000013 0.99150000000000016 0.98950000000000016 0.84950000000000003 0.85950000000000004 0.74650000000000005 0.84750000000000003 0.65950000000000009 0.81650000000000011 1.3835000000000002 1.0475000000000001 -0.14449999999999996 -0.24249999999999997 0.9235000000000001 0.63650000000000018 0.96250000000000002 0.9235000000000001 1.8335000000000001 1.4265000000000001 1.2695000000000001 0.66350000000000009 0.89750000000000008 1.6300000000000001 0.58350000000000002 0.12750000000000003 -0.21649999999999997 0.91850000000000021 1.3285000000000002 0.013500000000000002 0.61150000000000004 0.75850000000000006 0.85550000000000004 0.12950000000000003 1.1165000000000003 0.83550000000000002 1.3585000000000003 -0.53949999999999998 1.2535000000000001 0.90350000000000008 1.8760000000000001 0.99400000000000011 0.87350000000000005 -0.056499999999999995 -0.74349999999999994 -0.25449999999999995 0.90950000000000009 1.0255000000000003 0.98250000000000004 0.53250000000000008 -0.0074999999999999989 1.2265000000000004 1.1165000000000003 0.68550000000000011 0.53650000000000009 -0.23149999999999998 0.94150000000000011 -0.074499999999999983 0.9125000000000002 1.0000000180025095e-35 0.29550000000000004 -0.8899999999999999 -0.25349999999999995 0.9405 0.17650000000000002 -0.076499999999999985 0.19350000000000003 0.85050000000000014 1.9110000000000003 0.78150000000000019 0.25750000000000006 0.5655 0.56150000000000022 -1.2974999999999997 0.82450000000000012 0.80850000000000011 0.9235000000000001 0.98150000000000015 0.99550000000000016 -0.23649999999999996 1.1035000000000001
decision_type=2 2 2 2 2 2 2 2 2 2 2 2 2 2 2 2 2 2 2 2 2 2 2 2 2 2 2 2 2 2 2 2 2 2 2 2 2 2 2 2 2 2 2 2 2 2 2 2 2 2 2 2 2 2 2 2 2 2 2 2 2 2 2 2 2 2 2 2 2 2 2 2 2 2 2 2 2 2 2 2 2 2 2 2 2 2 2 2 2 2 2 2 2 2 2 2 2 2 2 2 2 2 2 2 2 2 2 2 2 2 2 2 2 2 2 2 2 2 2 2 2 2 2 2 2
left_child=1 16 3 5 10 18 7 8 15 62 17 50 30 35 43 -6 19 34 67 60 38 22 23 58 25 32 27 28 -7 52 49 -32 102 -24 48 36 75 53 39 40 44 -42 76 94 46 -46 73 79 -5 -4 -8 -17 -10 -37 55 -23 57 -57 -16 -9 109 77 63 82 -65 66 -26 68 91 -69 -49 -27 88 -21 115 90 -43 -12 107 80 -40 -58 83 111 85 86 87 -85 -52 -90 -14 -3 -39 112 103 -96 -91 98 118 -100 113 -25 105 -15 -38 -19 -86 -54 -48 -1 -81 -2 -61 -99 -88 -20 -107 -115 -67 -118 121 122 -119 -122 -123
right_child=9 2 12 4 6 26 11 59 29 -11 61 -13 13 14 21 51 -18 24 74 20 -22 54 33 101 65 71 -28 -29 -30 -31 31 -33 -34 -35 -36 37 104 92 47 -41 41 42 -44 -45 45 -47 108 70 -50 -51 72 -53 78 -55 -56 56 81 -59 -60 93 -62 -63 -64 64 -66 97 -68 69 -70 -71 -72 -73 -74 -75 -76 -77 -78 -79 -80 110 -82 -83 -84 84 106 -87 114 -89 89 96 -92 -93 -94 -95 95 -97 -98 100 99 -101 -102 -103 -104 -105 -106 116 -108 -109 -110 -111 -112 -113 -114 117 -116 -117 119 120 -120 -121 123 124 -124 -125 -126
leaf_value=-0.097543767517675378 -0.17274144052664508 -0.068977250387481023 -0.15992127047648125 -0.060540653849515819 -0.13091176792979997 0.053694476928549187 0.0093849588665189301 0.0087352286334010428 0.15536827474327525 0.042878066970764447 0.020349328129894741 -0.031824845017936781 0.040991724694836064 -0.088991854117782265 0.053662811066243737 -0.042589209942078383 0.071767331845777244 0.07387223915819921 -0.10995357744929538 -0.082307476946769292 0.060638947995977355 -0.045571331256718521 -0.029116660605157808 -0.071585611930366722 -0.021702107506213139 -0.11089057673221264 0.15381324964356982 0.12350879648117855 -0.11109527911005834 -0.032295050335592684 0.064989300752938961 -0.088623210409724401 0.021972126511036517 0.11438505927529807 0.11094281035118399 -0.04065880196363595 0.118201689467461 0.1502143193661104 0.00020889615010084348 0.087529376336796527 -0.11691880366472285 0.12989078377310528 -0.052921451386016408 0.0023502932678886334 -0.059247738377899262 0.089217320751369858 -0.16083841629100407 -0.087396685349470107 0.065045484461214081 -0.049448337128830996 0.13155960959175372 0.073352748479849988 -0.014915719166875216 0.0786852158905023 -0.058908702925817381 0.11983905212714736 0.053417475917221735 -0.072487215935136448 -0.077691931853262605 -0.086316305142788791 -0.025384875183720047 0.066453762661671106 -0.15338463028855687 0.043405706111497362 -0.094066501124617022 0.1491877879390385 0.1397002225090023 -0.0052256631533237619 0.092556892543356362 -0.12869337067562778 0.02414024748232739 0.0084067879151130433 0.14757334104527303 0.0065500936044893144 -0.045268269379406652 -0.090214096470378494 0.029740714216034532 -0.091365699768597694 0.12821158818324799 -0.10266692575870491 -0.14798189747319412 0.15255522707152402 -0.023538237372923838 0.032292092614860261 -0.084237669830728848 0.013500556678916859 -0.10036189386559634 -0.089209108099811252 -0.018060895159826125 0.039739061991658491 -0.059758049280910233 0.032947199934115171 0.058323144358259742 -0.036278202394324811 -0.011700640525990954 -0.13025381645297479 0.13660721662041844 0.10453680144494044 -0.023634040063302355 0.093774941837349857 0.06135325574102353 -0.15458942828966937 0.060982433717452968 -0.17862538622942314 0.033058895523737725 0.11241445834151216 -0.14741509581385101 0.062333735188688302 -0.094459314315194803 -0.1715754166588796 -0.17498370698427515 -0.10627062534824794 -0.15439074207838682 0.12424299954654519 -0.15658676475124539 -0.16180903405161959 0.16226332345858652 0.15528323555537069 0.12711385706248821 0.14775773945365167 0.13790828101212019 0.14563901326226225 0.14717017233771582 0.14301063760546512 0.13988294825353526
